tree
version=v4
num_class=1
num_tree_per_iteration=1
label_index=0
max_feature_idx=29
objective=binary sigmoid:1
feature_names=Column_0 Column_1 Column_2 Column_3 Column_4 Column_5 Column_6 Column_7 Column_8 Column_9 Column_10 Column_11 Column_12 Column_13 Column_14 Column_15 Column_16 Column_17 Column_18 Column_19 Column_20 Column_21 Column_22 Column_23 Column_24 Column_25 Column_26 Column_27 Column_28 Column_29
feature_infos=-1:12:13:11:14:10:15:19:16:17:9:18:20:8:21 -1:17:21:18:19:16:20:15:14:13:22:23:24:25:12:28:26:29:10:27:11 -1:78:73:82:88:76:94:81:87:84:85:70:75:74:77:97:71:79:96:102:66:83:92:98:68:80:86:61:65:89:90:91:93:95:109:114:129:130:54:59:60:64:72:100:108:117:120:123:132:62:63:67:103:105:106:107:110:111:115:126:128:133:152 [143.5:2501] [0.052630000000000003:0.16339999999999999] [0.023439999999999999:0.31140000000000001] [0:0.42680000000000001] [0:0.20119999999999999] [0.106:0.30399999999999999] [0.05024:0.097439999999999999] [0.1115:2.8730000000000002] [0.36020000000000002:4.8849999999999998] [0.77139999999999997:21.98] [6.8019999999999996:542.20000000000005] [0.0017129999999999999:0.031130000000000001] [0.0030119999999999999:0.13539999999999999] [0:0.30380000000000001] [0:0.040899999999999999] [0.0078820000000000001:0.061460000000000001] [0.00089479999999999996:0.022859999999999998] [7.9299999999999997:36.039999999999999] [12.869999999999999:45.409999999999997] [50.409999999999997:251.19999999999999] [185.19999999999999:4254] [0.071169999999999997:0.22259999999999999] [0.027289999999999998:1.0580000000000001] [0:1.252] [0:0.29099999999999998] [0.1565:0.66379999999999995] [0.055039999999999999:0.20749999999999999]
tree_sizes=1056 1394 1489 2124 2234 2226 2126 2347 2340 2348 2226 2237 2240 2138 2241 2137 2351 2129 2243 2236 2347 2454 2348 2349 2353 2462 2354 2560 2363 2362 2365 2471 2261 2576 2471 2562 2669 2670 2548 2683 2493 2473 2790 2661 2495 2915 3124 3122 2716 2906 2724 2630 2825 2614 2721 2726 3463 2736 2623 2518 3248 2740 2932 2744 3381 3267 3475 3263 2743 2621 2746 3074 3494 3300 3499 2747 3198 3423 3516 3322 3302 3213 3206 3532 3527 3531 3221 3212 3119 3328 3495 3006 2895 3346 3531 3546 2899 3342 3569 2898

Tree=0
num_leaves=9
num_cat=0
split_feature=20 27 21 6 9 21 3 3
split_gain=306.717 53.6134 16.009 13.4249 1.08531 0.185292 2.84217e-14 1.42109e-14
threshold=16.765000000000004 0.13495000000000004 26.355000000000004 0.073415000000000008 0.056365000000000005 31.885000000000002 1198.5000000000002 581.6500000000002
decision_type=2 2 2 2 2 2 2 2
left_child=1 4 -3 -2 -1 7 -5 -6
right_child=3 2 -4 6 5 -7 -8 -9
leaf_value=0.63213681281173928 0.42384666496487866 0.54815101043232983 0.28973855415550048 0.2490436791512754 0.67633986669563895 0.65599242919352641 0.24904367915127534 0.67633986669563895
leaf_weight=6.7868615984916678 5.1486536264419547 4.6805942058563215 4.9146239161491394 20.594614505767826 44.231615245342255 4.9146239161491385 9.3611884117126447 5.8507427573204032
leaf_count=29 22 20 21 88 189 21 40 25
internal_value=0.516691 0.635712 0.415793 0.274681 0.669866 0.674522 0.249044 0.67634
internal_weight=106.484 71.3791 9.59522 35.1045 61.7838 54.997 29.9558 50.0824
internal_count=455 305 41 150 264 235 128 214
is_linear=0
shrinkage=1


Tree=1
num_leaves=12
num_cat=0
split_feature=22 7 27 21 9 21 6 23 5 9 4
split_gain=244.683 25.0664 21.4885 4.97662 0.524472 0.184808 0.183592 0.0618481 0.00490602 4.92922e-05 1.42109e-14
threshold=105.95000000000002 0.048920000000000012 0.13495000000000004 22.030000000000005 0.055905000000000003 31.885000000000002 0.24325000000000002 930.10000000000002 0.10745000000000002 0.057290000000000008 0.10075000000000002
decision_type=2 2 2 2 2 2 2 2 2 2 2
left_child=2 -2 4 -3 -1 9 7 -5 -9 -6 -10
right_child=1 3 -4 6 5 -7 -8 8 10 -11 -12
leaf_value=0.11636981047472483 -0.0079313856295944538 -0.11906832940826061 -0.069543009962553304 -0.2415549482891072 0.15119627984700637 0.12966278541614054 -0.21028554463517179 -0.23186521553041259 -0.22827980514704246 0.15084746373047286 -0.2282798051470426
leaf_weight=5.4383761882781974 7.0543202608823767 4.8216037005186072 5.0397155135869971 4.8381759971380296 4.4785600900650016 4.4984447956085196 4.9078876227140418 4.9020757973194149 7.1387355178594616 42.456763684749603 10.092695042490957
leaf_count=24 30 20 21 20 20 20 20 20 29 190 41
internal_value=0.000438177 -0.180572 0.128365 -0.213755 0.145902 0.149025 -0.228076 -0.231313 -0.229074 0.150881 -0.22828
internal_weight=105.667 43.7555 61.9119 36.7012 56.8721 51.4338 31.8796 26.9717 22.1335 46.9353 17.2314
internal_count=455 180 275 150 254 230 130 110 90 210 70
is_linear=0
shrinkage=0.1


Tree=2
num_leaves=13
num_cat=0
split_feature=20 27 21 27 9 15 21 20 23 25 29 9
split_gain=202.269 38.723 8.255 7.32893 0.962795 0.355545 0.168361 0.14377 0.00450577 0.000765 0.000847778 3.53759e-08
threshold=16.765000000000004 0.15585000000000002 21.955000000000002 0.13495000000000004 0.056365000000000005 0.015625000000000003 31.885000000000002 18.655000000000005 713.45000000000016 0.3544500000000001 0.094990000000000005 0.058245000000000005
decision_type=2 2 2 2 2 2 2 2 2 2 2 2
left_child=1 3 -2 4 -1 -4 8 -7 11 -9 -11 -6
right_child=2 -3 5 -5 6 7 -8 9 -10 10 -12 -13
leaf_value=0.10086415935270931 -0.064825840597556028 -0.16456217799829317 -0.22743195957691797 0.01182305544457493 0.14371830571251099 -0.18396433567877632 0.12382668972143598 -0.20205822197985046 0.14711660455167394 -0.2042797779656389 -0.20261937755966497 0.14372775285585312
leaf_weight=6.3458929657936087 4.9103417545557013 4.913600042462348 5.3855399638414374 5.0524351298809043 4.444863721728324 4.9891098439693478 4.5268700569868079 8.9990396350622195 4.3349633663892737 4.9957042485475522 7.9985355883836746 36.620306596159935
leaf_count=29 20 20 22 21 21 20 21 36 20 20 32 173
internal_value=0.000687634 0.105552 -0.185644 0.127195 0.137553 -0.203973 0.142217 -0.19929 0.14405 -0.202767 -0.203258 0.143727
internal_weight=103.517 66.2389 37.2783 61.3253 56.2729 32.3679 49.927 26.9824 45.4001 21.9933 12.9942 41.0652
internal_count=455 305 150 285 264 130 235 108 214 88 52 194
is_linear=0
shrinkage=0.1


Tree=3
num_leaves=19
num_cat=0
split_feature=7 27 20 23 21 27 28 23 27 21 9 6 9 6 3 9 3 3
split_gain=170.009 18.452 16.875 12.6043 0.829528 0.473956 0.234986 0.0708508 0.0492462 0.0260959 0.00734501 0.000515268 0.000120769 4.13952e-05 4.40663e-07 3.25994e-09 7.10543e-15 3.55271e-15
threshold=0.048920000000000012 0.14700000000000005 16.715000000000007 805.30000000000007 30.080000000000002 0.16030000000000003 0.21395000000000003 981.05000000000007 0.10775000000000001 25.215000000000003 0.056515000000000003 0.21960000000000005 0.060815000000000008 0.059345000000000009 537.40000000000009 0.059505000000000009 444.25000000000006 321.50000000000006
decision_type=2 2 2 2 2 2 2 2 2 2 2 2 2 2 2 2 2 2
left_child=2 3 4 -2 6 -3 -1 -7 10 -9 -8 12 -11 14 15 -12 17 -17
right_child=1 5 -4 -5 -6 7 8 9 -10 11 13 -13 -14 -15 -16 16 -18 -19
leaf_value=0.11436928093449612 0.089320867117445968 -0.15472005990419024 -0.058455742147100843 -0.13415569364497759 0.10121590583859806 -0.19742377158758484 0.1423748625725344 -0.19170287863419497 0.14953478053885988 -0.1829089550415276 0.13787048782782005 -0.18446822672653929 -0.18354834997937777 0.13821225471875764 0.13783712529066711 0.13787362643773232 0.13787362643773241 0.13787362643773241
leaf_weight=4.0373502969741812 4.7559851408004743 4.9558541625738135 5.102641135454177 5.3773512542247772 7.4117044359445563 6.4705539941787746 4.1760859638452521 5.2211892157793072 4.50081443786621 5.4518029093742388 3.984632536768923 4.9644662737846366 6.4477114677429199 3.9981831014156333 3.9830449074506751 5.5786941051483181 5.1802159547805777 8.7665193080902082
leaf_count=20 22 20 21 22 36 26 20 21 21 22 20 20 26 20 20 28 26 44
internal_value=0.000857934 -0.147512 0.115026 -0.0292691 0.132176 -0.183267 0.137367 -0.188221 0.139678 -0.185525 0.138434 -0.183612 -0.183255 0.137912 0.137868 0.137873 0.137874 0.137874
internal_weight=100.365 43.6449 56.7199 10.1333 51.6172 33.5116 44.2055 28.5557 40.1682 22.0852 35.6674 16.864 11.8995 31.4913 27.4931 23.5101 19.5254 14.3452
internal_count=455 179 276 44 255 135 219 115 199 89 178 68 48 158 138 118 98 72
is_linear=0
shrinkage=0.1


Tree=4
num_leaves=20
num_cat=0
split_feature=7 20 27 23 21 27 25 27 21 20 9 6 25 17 8 23 6 4 5
split_gain=143.089 18.255 15.3513 10.3266 0.785746 0.434216 0.249912 0.0478347 0.043159 0.0272967 0.00713258 0.000336943 0.000143434 0.000101704 7.86141e-06 2.84457e-07 4.89663e-09 3.15552e-10 8.95284e-13
threshold=0.048920000000000012 16.850000000000005 0.14700000000000005 805.30000000000007 30.080000000000002 0.16030000000000003 0.073690000000000019 0.10775000000000001 24.150000000000002 17.750000000000004 0.056590000000000008 0.21960000000000005 0.34475000000000006 0.013035000000000001 0.15215000000000004 633.20000000000016 0.042905000000000006 0.089575000000000002 0.072185000000000013
decision_type=2 2 2 2 2 2 2 2 2 2 2 2 2 2 2 2 2 2 2
left_child=1 4 3 -2 6 -4 -1 10 -7 -10 -8 12 -11 14 -12 16 17 -16 -19
right_child=2 -3 5 -5 -6 8 7 -9 9 11 13 -13 -14 -15 15 -17 -18 18 -20
leaf_value=0.1080167003777342 0.083053586220054751 -0.084061223400388047 -0.14086335938997027 -0.12100657580868449 0.096950385980988679 -0.18163324608564019 0.13760398975868005 0.14459938402359435 -0.17793383291903095 -0.16883079461278022 0.1331464631793261 -0.17023962524138536 -0.1695137384458193 0.13354700942547101 0.13299479418895363 0.13296438725820506 0.13299158936103286 0.13299590480539741 0.13299584377329243
leaf_weight=3.7986001819372168 4.6110820770263654 4.4602164924144736 4.9014906585216513 5.3657365888357162 7.3098679333925238 4.9192268252372768 3.9620572924613944 4.497158855199813 4.905199438333514 4.829320594668391 3.7392764091491761 4.847098931670188 8.4668794721364957 4.1355825513601294 3.7308354675769868 3.7290981709957114 3.9171857684850684 3.7308987975120527 6.7156113982200623
leaf_count=20 22 18 20 22 37 20 20 22 20 20 20 20 35 22 20 20 21 20 36
internal_value=0.000965281 0.109667 -0.135341 -0.0266941 0.127206 -0.168318 0.132478 0.134913 -0.17313 -0.171315 0.133619 -0.169526 -0.169266 0.133087 0.133012 0.13299 0.132995 0.132996 0.132996
internal_weight=96.5724 53.7264 42.846 9.97682 49.2662 32.8692 41.9563 38.1577 27.9677 23.0485 33.6605 18.1433 13.2962 29.6985 25.5629 21.8236 18.0945 14.1773 10.4465
internal_count=455 276 179 44 258 135 221 201 115 95 179 75 55 159 137 117 97 76 56
is_linear=0
shrinkage=0.1


Tree=5
num_leaves=20
num_cat=0
split_feature=7 20 21 23 21 28 27 27 27 9 21 6 24 18 25 9 6 28 26
split_gain=121.534 15.9798 13.6896 5.35506 0.787652 0.248106 0.0946078 0.0328897 0.00608145 0.0045831 0.00329455 0.000272862 7.41889e-05 7.3687e-05 6.98688e-06 1.87762e-07 2.76501e-08 1.07142e-09 1.34648e-12
threshold=0.048920000000000012 16.850000000000005 20.845000000000002 784.1500000000002 30.080000000000002 0.21395000000000003 0.14840000000000003 0.10775000000000001 0.16700000000000001 0.056515000000000003 25.490000000000006 0.22545000000000001 0.1062 0.016720000000000002 0.10180000000000002 0.059025000000000001 0.050960000000000012 0.26085000000000008 0.15465000000000004
decision_type=2 2 2 2 2 2 2 2 2 2 2 2 2 2 2 2 2 2 2
left_child=1 4 -2 -4 5 -1 -5 9 -8 -7 -10 13 -11 -12 -14 -16 17 -17 -19
right_child=2 -3 3 6 -6 7 8 -9 10 12 11 -13 14 -15 15 16 -18 18 -20
leaf_value=0.10296305879263759 0.035612626712149147 -0.075236573532030102 -0.0586029568189722 -0.17547988726429323 0.091557150654981545 0.13263425396508996 -0.16337962393892214 0.13881197979107943 -0.1618309746327472 0.12939443953957086 -0.15826640015851823 -0.15947856993289422 0.12903300946636712 -0.15877664907791089 0.12885872538167739 0.12888482063775841 0.12887651335310321 0.12888683357675021 0.12888691081043391
leaf_weight=3.593001499772071 4.6752585172653189 4.4835782647132865 5.8912457376718512 4.8159151375293758 6.9835930764675131 3.8846021741628673 4.9727401137352016 4.2299437522888175 4.7020763456821468 3.5087072402238872 4.6520841568708438 4.6767606884241095 3.4873393326997784 7.2271762490272522 3.4759932160377529 3.4777322858572033 3.6510391682386389 6.4340523183345777 3.4778710901737213
leaf_count=20 21 18 26 20 37 21 21 22 20 20 20 20 20 31 20 20 21 37 20
internal_value=0.00103731 0.105008 -0.125605 -0.146011 0.122499 0.128008 -0.162597 0.130534 -0.160231 0.129419 -0.159495 -0.158832 0.128965 -0.158577 0.128902 0.12888 0.128884 0.128886 0.128887
internal_weight=92.3007 50.6875 41.6133 36.938 46.2039 39.2203 31.0468 35.6273 26.2308 31.3973 21.2581 16.556 27.5127 11.8793 24.004 20.5167 17.0407 13.3897 9.91192
internal_count=455 276 179 158 258 221 132 201 112 179 91 71 158 51 138 118 98 77 57
is_linear=0
shrinkage=0.1


Tree=6
num_leaves=19
num_cat=0
split_feature=27 23 20 13 21 3 18 21 27 7 4 6 8 19 5 25 28 29
split_gain=104.939 26.4395 4.37954 3.82089 2.346 0.331222 0.171915 0.0633788 0.0197857 0.0164476 0.000758804 0.000226084 0.000124261 6.02087e-05 1.98471e-05 1.02754e-05 3.2636e-08 4.02057e-10
threshold=0.14205000000000004 972.25000000000011 16.280000000000005 35.490000000000009 30.080000000000002 640.95000000000016 0.013485000000000002 23.470000000000002 0.16135000000000002 0.040810000000000006 0.083660000000000012 0.23145000000000002 0.15490000000000001 0.0037365000000000007 0.058205000000000007 0.23470000000000005 0.26860000000000006 0.079185000000000019
decision_type=2 2 2 2 2 2 2 2 2 2 2 2 2 2 2 2 2 2
left_child=1 3 -2 4 5 6 -1 -4 -9 10 -8 13 -12 -10 -14 16 -16 -18
right_child=2 -3 7 -5 -6 -7 9 8 11 -11 12 -13 14 -15 15 -17 17 -19
leaf_value=0.10337662435873499 -0.058631226370361424 -0.13676691165998631 -0.16422618381841758 0.01780201553557063 0.064385744768480885 0.15458507433385271 0.12674404100904188 -0.15738636159493394 -0.1496356510986139 0.13314845442083664 0.12605195209796791 -0.15064933242905629 0.12561668329662501 -0.15005069756280554 0.12538135350074003 0.12518530796059643 0.12539360795052021 0.12539209729141762
leaf_weight=3.5507764369249335 5.8721397370100012 4.7959975302219382 4.6986706703901318 4.1884661614894858 6.9908008873462668 4.0101029872894278 6.4654571115970674 4.5745518654584911 6.8715704530477542 3.4283511489629737 3.4405153691768673 4.6860778778791419 3.2464093118906048 7.1132069677114487 3.713440001010893 3.2137681841850272 3.8760095983743668 3.2298936545848846
leaf_count=21 25 20 20 21 38 20 39 20 31 19 21 21 20 32 23 20 24 20
internal_value=0.00107585 0.0873883 -0.137136 0.109171 0.117644 0.127397 0.124206 -0.153633 -0.151492 0.126621 0.125798 -0.150048 0.125503 -0.149847 0.125394 0.125342 0.125389 0.125393
internal_weight=87.9662 54.15 33.8162 49.354 45.1655 38.1747 34.1646 27.9441 23.2454 30.6138 27.1855 18.6709 20.72 13.9848 17.2795 14.0331 10.8193 7.1059
internal_count=455 306 149 286 265 227 207 124 104 186 167 84 128 63 107 87 67 44
is_linear=0
shrinkage=0.1


Tree=7
num_leaves=21
num_cat=0
split_feature=7 20 27 21 21 9 27 22 23 21 7 21 28 25 4 7 18 26 4 20
split_gain=90.4656 12.8883 10.9226 8.00145 4.22338 0.638784 0.509848 0.102008 0.0599478 0.0197168 0.00799278 0.00224723 0.000111928 9.77453e-05 4.79428e-05 3.15617e-05 1.86283e-05 1.74929e-05 2.78684e-06 1.65463e-07
threshold=0.048920000000000012 17.750000000000004 0.14700000000000005 23.010000000000002 33.350000000000001 0.055905000000000003 0.16030000000000003 104.35000000000001 923.95000000000016 24.760000000000002 0.035875000000000011 28.895000000000007 0.22650000000000003 0.34180000000000005 0.082115000000000007 0.11105000000000001 0.014865000000000001 0.054150000000000011 0.096245000000000011 12.995000000000003
decision_type=2 2 2 2 2 2 2 2 2 2 2 2 2 2 2 2 2 2 2 2
left_child=1 4 3 -2 5 -1 -4 10 -8 -10 11 12 -7 -11 -14 -15 -16 -18 -19 -20
right_child=2 -3 6 -5 -6 7 8 -9 9 13 -12 -13 14 15 16 -17 17 18 19 -21
leaf_value=0.084307017415748309 0.086228547511670861 -0.11298071633389382 -0.11029687557602881 -0.099792620423790765 0.0070834813718356872 0.12317815435171416 -0.15738882103836865 0.14210784038650071 -0.15061648020809792 -0.1426310837882318 0.12818634508838192 0.12536740739577087 0.12287969221141899 -0.14306473933575764 0.12269390472891982 -0.14340434248933798 0.12263740936150801 0.12231557085107359 0.12239744722429889 0.12242929102384517
leaf_weight=4.2852580547332755 4.1533202081918699 2.7329167276620856 4.4579173475503948 5.216516450047493 3.5733354091644278 3.0530254691839316 4.5620898008346584 3.2508021295070639 4.3980793356895473 4.1906559765338889 3.2477074414491645 3.365475505590438 3.3311982899904278 7.1536425948142988 3.0143889337778118 4.4321601092815399 3.0090419203042975 5.5184484869241697 3.5881039500236511 2.9927237629890442
leaf_count=25 20 11 20 24 19 20 20 17 20 20 20 21 22 34 20 21 20 37 24 20
internal_value=0.0010959 0.0974782 -0.111277 -0.017336 0.111098 0.120713 -0.141427 0.125252 -0.147037 -0.144696 0.123491 0.122944 0.122612 -0.143045 0.122531 -0.143195 0.122467 0.122422 0.122368 0.122412
internal_weight=83.5268 44.9624 38.5644 9.36984 42.2295 38.6562 29.1945 34.3709 24.7366 20.1745 31.1201 27.8724 24.5069 15.7765 21.4539 11.5858 18.1227 15.1083 12.0993 6.58083
internal_count=455 276 179 44 265 246 135 221 115 95 204 184 163 75 143 55 121 101 81 44
is_linear=0
shrinkage=0.1


Tree=8
num_leaves=21
num_cat=0
split_feature=27 23 3 21 4 21 22 23 7 27 9 5 28 28 24 18 20 3 21 5
split_gain=78.9479 12.9562 11.343 4.57274 0.873268 0.533397 0.426903 0.050942 0.0038717 0.00263416 0.00174019 0.000176932 0.000255997 6.09438e-05 2.83036e-05 9.7344e-06 9.47272e-06 5.51967e-06 5.02958e-07 1.26124e-08
threshold=0.11575000000000002 727.10000000000002 689.85000000000014 21.810000000000006 0.09056500000000002 30.080000000000002 114.15000000000002 765.45000000000016 0.035875000000000011 0.16700000000000001 0.056860000000000008 0.13350000000000004 0.30205000000000004 0.22955000000000003 0.10790000000000001 0.014865000000000001 22.585000000000004 311.80000000000001 25.740000000000006 0.075785000000000005
decision_type=2 2 2 2 2 2 2 2 2 2 2 2 2 2 2 2 2 2 2 2
left_child=2 -2 5 -3 -5 7 -6 8 10 -8 -1 -11 -13 -12 -15 -16 -14 -17 19 -19
right_child=1 3 -4 4 6 -7 9 -9 -10 11 13 12 16 14 15 17 -18 18 -20 -21
leaf_value=0.1224566683232252 0.047258578154893482 -0.030834147228005499 -0.064750826653660318 -0.09538367426457485 -0.17126423884004188 0.086778386802876334 -0.14031421574784722 0.1348731551140393 0.12400320410850894 -0.13688767624660686 0.12040932150544592 -0.13829052613176174 -0.13721504580131735 0.12021485050078762 0.12004050793099702 0.11996055888079138 -0.13743382438597751 0.11981022350069444 0.11976656431000124 0.11981856753729064
leaf_weight=3.2793382257223227 5.1798440217971793 4.6829236298799506 3.7875397056341162 4.24920625984669 4.789229869842532 4.9897639602422705 4.0853208750486401 2.7949026972055426 3.1951211839914313 3.9365525245666531 2.9541199505329159 4.1989704817533475 3.9528016000986099 2.7955817133188274 2.7812629938125637 2.7729654461145392 3.9635651409626007 2.8981495052576047 2.8937767148017883 4.8316114991903305
leaf_count=22 27 21 17 21 21 30 20 16 21 20 21 21 20 20 20 20 20 21 21 35
internal_value=0.00111994 -0.10003 0.0999022 -0.122563 -0.137286 0.117136 -0.144429 0.121991 0.120724 -0.138047 0.120308 -0.13747 -0.137659 0.119987 0.119921 0.11987 -0.137325 0.119835 0.119802 0.119815
internal_weight=79.0125 39.0384 39.9741 33.8586 29.1756 36.1866 24.9264 31.1968 28.4019 20.1372 25.2068 16.0519 12.1153 21.9275 18.9733 16.1778 7.91637 13.3965 10.6235 7.72976
internal_count=455 191 264 164 143 247 122 217 201 101 180 81 61 158 137 117 40 97 77 56
is_linear=0
shrinkage=0.1


Tree=9
num_leaves=21
num_cat=0
split_feature=7 20 22 21 23 5 3 21 21 16 27 9 18 10 11 27 25 18 17 7
split_gain=68.7774 10.3188 9.12615 12.2625 0.982248 1.54787 0.191158 0.0441171 0.0104976 0.00960049 0.00867143 0.000343212 8.08813e-05 0.000135471 4.24498e-05 1.80387e-05 9.62762e-06 4.51436e-06 2.24802e-06 2.00537e-08
threshold=0.048920000000000012 16.850000000000005 114.80000000000001 25.810000000000006 650.80000000000007 0.061155000000000008 588.05000000000007 23.795000000000005 30.265000000000004 0.049775000000000007 0.15435000000000001 0.058245000000000005 0.014965000000000001 0.54840000000000011 1.6815000000000002 0.20930000000000001 0.10360000000000001 0.015860000000000003 0.010540000000000002 0.018480000000000007
decision_type=2 2 2 2 2 2 2 2 2 2 2 2 2 2 2 2 2 2 2 2
left_child=1 4 3 -2 8 -6 -7 -4 9 11 -9 -1 -12 -14 16 -15 -13 -18 19 -19
right_child=2 -3 7 -5 5 6 -8 10 -10 -11 12 14 13 15 -16 -17 17 18 -20 -21
leaf_value=0.11886032835352751 0.08214703059727356 -0.053586706825462828 -0.14511090927557307 -0.12728298293810922 0.022897668930887266 0.091120187948684039 0.12579347451396711 -0.13793590332210001 0.12431122008710455 0.1245133550426189 -0.13233603822903695 0.11779364926810557 -0.13332291451082265 -0.13244931639687796 0.11805877426642393 -0.13275749019296296 0.11769318252717249 0.11757000705230879 0.11746545488476297 0.11758147213925561
leaf_weight=2.9268470555543997 5.3978884965181333 4.3680362850427619 4.1425021737813976 5.7995643466711044 3.0339226275682432 2.9768344163894653 3.4130039289593697 3.9734152853488949 3.7608302533626548 2.4389379620552054 4.2457974106073371 2.5636499375104931 3.9338553398847562 3.8843908458948135 2.5888534486293784 3.7168357670307159 2.6817522868514052 2.5421933084726316 2.5312537923455238 3.8150360584259033
leaf_count=22 27 18 20 27 21 21 22 20 24 17 23 20 21 21 20 20 21 20 20 30
internal_value=0.00113564 0.0913976 -0.100821 -0.0263243 0.109352 0.081714 0.10964 -0.135728 0.119427 0.118596 -0.133761 0.117861 -0.132709 -0.132847 0.117687 -0.1326 0.117618 0.117579 0.117545 0.117577
internal_weight=74.7354 39.6412 35.0942 11.1975 35.2731 9.42376 6.38984 23.8968 25.8494 22.0885 19.7543 19.6496 15.7809 11.5351 16.7227 7.60123 14.1339 11.5702 8.88848 6.35723
internal_count=455 276 179 54 258 64 43 125 194 170 105 153 85 62 131 41 111 91 70 50
is_linear=0
shrinkage=0.1


Tree=10
num_leaves=20
num_cat=0
split_feature=27 13 3 24 21 15 14 26 14 23 7 23 9 3 25 9 18 11 5
split_gain=60.102 10.9449 9.24101 9.13691 0.633107 0.289754 0.11516 0.0659823 0.0392745 0.0382511 0.00377553 0.00207898 0.00142148 0.000133074 1.95288e-05 4.51452e-06 3.0785e-06 1.437e-06 3.145e-07
threshold=0.11575000000000002 31.200000000000003 689.85000000000014 0.13595000000000004 30.080000000000002 0.040955000000000005 0.0082655000000000003 0.32185000000000002 0.0050845000000000013 765.45000000000016 0.037235000000000004 1595.0000000000002 0.056860000000000008 514.40000000000009 0.088840000000000016 0.067965000000000012 0.016090000000000004 1.429 0.078155000000000016
decision_type=2 2 2 2 2 2 2 2 2 2 2 2 2 2 2 2 2 2 2
left_child=2 3 4 -2 9 6 7 -3 -9 10 12 -10 -1 14 -14 16 -16 18 -18
right_child=1 5 -4 -5 -6 -7 -8 8 11 -11 -12 -13 13 -15 15 -17 17 -19 -20
leaf_value=0.11822356845495226 0.10364489769779349 -0.14120383624832641 -0.054763006117661939 -0.081477105082793155 0.076963473372360688 -0.10707068493401069 -0.14978434372247537 -0.11747343647988617 -0.13162747231653613 0.12953205420610897 0.12020895110641715 -0.12836292917340131 0.11597027208251405 0.11644875817532446 0.11573675942345965 0.11577794986632735 0.1156146262860919 0.11554045058564462 0.11566165522687935
leaf_weight=2.8473491147160663 4.3886345177888852 4.0384582430124345 3.7194481641054145 6.7928965762257576 4.4276852905750266 5.0349733084440222 3.7339536994695655 3.4796079695224744 4.5032141953706741 2.5117348581552497 2.5492988377809516 3.4416962713003159 2.4923484325408962 2.9072595164179793 2.3493203967809668 2.8236062824726096 3.621316619217394 2.3280188217759132 2.3413331285119057
leaf_count=22 24 21 17 34 30 28 19 20 25 16 19 20 21 24 20 24 31 20 20
internal_value=0.00113506 -0.0906586 0.0942292 -0.00881865 0.111991 -0.128423 -0.134023 -0.130217 -0.126333 0.117785 0.116568 -0.130213 0.116141 0.115827 0.115713 0.115666 0.115636 0.115607 0.115633
internal_weight=70.3322 35.4134 34.9187 11.1815 31.1993 24.2319 19.1969 15.463 11.4245 26.7716 24.2599 7.94491 21.7106 18.8632 15.9559 13.4636 10.64 8.29067 5.96265
internal_count=455 191 264 58 247 133 105 86 65 217 201 45 182 160 136 115 91 71 51
is_linear=0
shrinkage=0.1


Tree=11
num_leaves=20
num_cat=0
split_feature=22 21 26 24 13 8 4 27 7 21 13 18 6 9 5 5 18 14 3
split_gain=52.7054 14.2721 4.97035 4.73058 0.650287 0.44206 1.13299 0.211452 0.0670694 0.00715376 0.00108724 0.000662647 0.000563054 0.000496686 7.48769e-05 3.40877e-05 8.59635e-06 2.93322e-06 9.00113e-07
threshold=101.95000000000002 20.845000000000002 0.40115000000000006 0.11250000000000002 32.57500000000001 0.15880000000000002 0.090440000000000006 0.14840000000000003 0.044930000000000005 30.375000000000004 45.390000000000008 0.022895000000000002 0.020980000000000002 0.05791000000000001 0.15570000000000003 0.10160000000000001 0.026975000000000002 0.0064650000000000011 461.20000000000005
decision_type=2 2 2 2 2 2 2 2 2 2 2 2 2 2 2 2 2 2 2
left_child=2 -2 5 -3 -5 6 12 -6 9 13 -9 14 -1 -7 -12 16 17 18 -15
right_child=1 3 -4 4 7 8 -8 10 -10 -11 11 -13 -14 15 -16 -17 -18 -19 -20
leaf_value=0.1167670763879558 0.064523261969047827 0.0015585601591452279 -0.039082100491969834 -0.093954158285467326 -0.15135933594031253 0.1156692355155443 0.030833408475727488 -0.12765195710329366 0.13183609090619552 0.11997460349319862 -0.12491532539594895 -0.12678047911533816 0.11463429104119541 0.11397427244798619 -0.12547748813751167 0.1144409539731272 0.11418082798233396 0.11390250853165343 0.11406563738902829
leaf_weight=2.4041254818439546 5.6733923032879821 3.4658920839428928 2.4326289370656005 6.1044052168726948 4.1261663734912899 2.3238748610019746 2.3071209639310837 3.3525268286466625 2.783325567841529 2.6239508241415015 4.7870567142963392 3.642568811774253 2.5515149310231209 2.151376970112322 4.6911947876214981 2.1941190883517256 2.282129853963851 4.1788958013057709 2.1618319973349571
leaf_count=20 28 21 13 33 20 20 19 20 18 19 30 22 23 20 29 20 21 39 20
internal_value=0.00115192 -0.0809911 0.0980191 -0.108355 -0.12262 0.109946 0.0887197 -0.131115 0.117394 0.115151 -0.126045 -0.125634 0.115669 0.114323 -0.125194 0.114082 0.114009 0.113962 0.11402
internal_weight=66.2381 35.8432 30.3949 30.1698 26.7039 27.9623 7.26276 20.5995 20.6995 17.9162 16.4733 13.1208 4.95564 15.2922 9.47825 12.9684 10.7742 8.4921 4.31321
internal_count=455 203 252 175 154 239 62 121 177 159 101 81 43 140 59 120 100 79 40
is_linear=0
shrinkage=0.1


Tree=12
num_leaves=20
num_cat=0
split_feature=7 20 22 21 21 9 27 21 27 21 15 3 28 13 14 10 4 25 17
split_gain=46.822 7.7716 7.26705 8.72246 3.77018 0.750879 0.104683 0.0353313 0.00351743 0.0013945 0.000356699 0.000295208 6.53322e-05 5.17984e-05 1.9948e-05 1.3645e-05 7.80746e-06 4.87422e-06 1.91139e-06
threshold=0.048920000000000012 17.750000000000004 114.80000000000001 25.810000000000006 33.350000000000001 0.056180000000000008 0.11225000000000002 23.795000000000005 0.15435000000000001 28.895000000000007 0.040955000000000005 546.35000000000002 0.22805000000000003 45.655000000000008 0.0057685000000000002 0.3706000000000001 0.095785000000000023 0.18795000000000003 0.010018500000000001
decision_type=2 2 2 2 2 2 2 2 2 2 2 2 2 2 2 2 2 2 2
left_child=1 4 3 -2 5 -1 9 -4 -9 11 13 12 -7 -10 -15 16 17 -14 -18
right_child=2 -3 7 -5 -6 6 -8 8 10 -11 -12 -13 15 14 -16 -17 18 -19 -20
leaf_value=0.06691486727010619 0.074127262556226231 -0.083263234750765594 -0.13434064682594934 -0.11103242417975397 -0.0082990846278001955 0.11313464804357656 0.1308293325750606 -0.12626484970938837 -0.12262786315373755 0.11540754897123036 -0.12352076140711384 0.11382134947823022 0.11249331411508497 -0.12232029887321037 -0.12197257100752945 0.11276661855448158 0.11244153494753717 0.1126856096806288 0.11231701880625589
leaf_weight=3.5761499181389871 4.9429286345839518 2.5711683481931678 3.5632430464029339 5.2425596565008163 3.0122584998607627 2.0476981326937773 4.000223644077777 3.2532982230186489 3.0064789801835996 2.2711832821369162 3.0668878704309455 2.3224374875426284 3.5535039231181127 2.982677161693573 3.6916818022727966 2.0050252079963675 3.3457110226154327 2.0954548120498657 1.9521249905228613
leaf_count=27 27 11 20 27 19 20 26 20 20 20 20 22 36 20 25 20 34 21 20
internal_value=0.00114117 0.0836294 -0.0896741 -0.021176 0.0978469 0.109615 0.116087 -0.125335 -0.12333 0.113078 -0.122581 0.112772 0.11261 -0.122283 -0.122128 0.112527 0.112483 0.112565 0.112396
internal_weight=62.5027 32.7529 29.7498 10.1855 30.1818 27.1695 23.5934 19.5643 16.001 19.5931 12.7477 17.322 14.9995 9.68084 6.67436 12.9518 10.9468 5.64896 5.29784
internal_count=455 276 179 54 265 246 219 125 105 193 85 173 151 65 45 131 111 57 54
is_linear=0
shrinkage=0.1


Tree=13
num_leaves=19
num_cat=0
split_feature=27 22 21 3 21 21 23 27 9 12 15 21 3 14 3 28 7 18
split_gain=41.5328 9.38099 10.6597 6.3571 0.265123 0.0347574 0.0120543 0.00951689 0.0011611 0.000848743 0.000255623 0.000145651 0.000100615 3.47287e-05 2.42291e-05 1.35331e-05 1.12829e-06 5.2039e-07
threshold=0.11065000000000001 117.15000000000002 27.430000000000003 689.85000000000014 32.830000000000005 23.795000000000005 765.45000000000016 0.15435000000000001 0.056680000000000001 2.6820000000000008 0.040955000000000005 28.130000000000006 514.40000000000009 0.0056125000000000003 301.35000000000008 0.25115000000000004 0.028655000000000003 0.017185000000000002
decision_type=2 2 2 2 2 2 2 2 2 2 2 2 2 2 2 2 2 2
left_child=3 2 -2 4 6 -3 8 -7 -1 11 13 12 14 -9 -10 -16 17 -17
right_child=1 5 -4 -5 -6 7 -8 10 9 -11 -12 -13 -14 -15 15 16 -18 -19
leaf_value=0.11422715082256006 0.070124933179546253 -0.13232152458904831 -0.10782703557621497 -0.047756945125887927 0.077847699986926144 -0.12620908808212203 0.12029857819005141 -0.11991658387155879 0.11156726396858255 0.11353234508085751 -0.12079530041980771 0.1123034810881592 0.11197667560202236 -0.11951494717038019 0.11139374761792481 0.1111741916099754 0.11104044067004373 0.11110790715276005
leaf_weight=2.1483417972922458 7.1698249876499194 3.5577199161052731 6.345261313021183 2.8881215006113043 2.4163067340850821 3.1068666577339163 1.9380146116018284 4.0139825046062452 1.9434107095003152 2.3506848961114875 2.8344058394432059 1.9241727590560902 2.2820160165429106 4.6433246582746506 2.2007567659020406 1.8984171226620672 1.7904358655214307 3.1492005437612534
leaf_count=20 39 21 37 14 18 20 15 29 21 23 20 20 24 34 24 21 20 35
internal_value=0.00112624 -0.0765031 -0.0134226 0.0924236 0.109263 -0.123459 0.112774 -0.121299 0.112033 0.111764 -0.119971 0.11149 0.111372 -0.119701 0.111247 0.111178 0.111109 0.111133
internal_weight=58.6013 31.6714 13.5151 26.9299 24.0418 18.1563 21.6255 14.5986 19.6874 17.5391 11.4917 15.1884 13.2642 8.65731 10.9822 9.03881 6.83805 5.04762
internal_count=455 200 76 255 241 124 223 103 208 188 83 165 145 63 121 100 76 56
is_linear=0
shrinkage=0.1


Tree=14
num_leaves=20
num_cat=0
split_feature=7 23 21 20 23 5 15 3 21 27 21 27 9 11 24 28 15 4 14
split_gain=36.4074 6.35704 7.71022 6.10514 1.18945 1.98502 0.743218 0.197775 0.101932 0.0109468 0.00706904 0.00684338 7.57728e-05 5.38212e-05 5.11008e-05 9.82774e-06 6.44848e-06 3.04183e-06 3.65941e-07
threshold=0.048920000000000012 810.55000000000007 25.890000000000004 16.850000000000005 650.80000000000007 0.06056000000000001 0.019335000000000005 588.05000000000007 24.005000000000003 0.10625000000000001 31.775000000000002 0.15585000000000002 0.05886000000000001 1.6540000000000001 0.14390000000000003 0.25335000000000008 0.031005000000000001 0.087545000000000012 0.006362500000000001
decision_type=2 2 2 2 2 2 2 2 2 2 2 2 2 2 2 2 2 2 2
left_child=3 2 -2 4 9 -6 -3 -7 -8 10 12 -10 -1 15 -13 -14 -16 -17 -19
right_child=1 6 -4 -5 5 7 8 -9 11 -11 -12 14 13 -15 16 17 -18 18 -20
leaf_value=0.11076591302159577 0.11296520068462371 -0.072541747900019923 -0.09574615874791588 -0.034788841694425601 -0.012715910058276925 0.078091775158679322 -0.13840638008337117 0.11827784381002432 -0.12327224365211087 0.11945353701203097 0.11655087837077108 -0.11795987363714289 0.11021989793702872 0.11057097183703962 -0.11737235687337011 0.11008651750514396 -0.11759802478611288 0.10996838030469724 0.10991293836672307
leaf_weight=2.3539365306496718 3.1679819673299816 3.5245945751667049 4.0110403150320053 4.0473116338253012 2.314336620271205 2.2906075716018677 3.5038188621401778 2.6317230239510536 2.897451475262641 1.7311653718352307 2.0483285263180724 4.1228231713175756 2.1001178026199323 2.3226005360484114 2.5209673121571541 1.745617516338825 2.5441185012459755 1.8957951739430425 3.2000849992036819
leaf_count=27 20 25 21 18 20 22 21 22 20 15 17 32 25 27 20 21 20 23 39
internal_value=0.00111818 -0.0838777 -0.00364534 0.0790349 0.0977357 0.0636651 -0.114013 0.0995772 -0.123389 0.111908 0.111074 -0.119035 0.11025 0.110142 -0.117698 0.110031 -0.117486 0.109973 0.109934
internal_weight=54.9744 26.2928 7.17902 28.6816 24.6343 7.23667 19.1138 4.92233 15.5892 17.3976 15.6665 12.0854 13.6182 11.2642 9.18791 8.94162 5.06509 6.8415 5.09588
internal_count=455 179 41 276 258 64 138 44 113 194 179 92 162 135 72 108 40 83 62
is_linear=0
shrinkage=0.1


Tree=15
num_leaves=19
num_cat=0
split_feature=27 23 13 20 21 29 20 11 7 3 21 9 27 18 28 27 14 21
split_gain=32.4911 9.23158 3.06317 2.69124 2.32998 0.329642 0.265817 0.0119271 0.0075024 0.00378993 0.00142791 0.000213832 0.000109363 6.21805e-05 1.44078e-05 1.13741e-05 1.7834e-06 4.13092e-07
threshold=0.14205000000000004 972.25000000000011 35.490000000000009 16.280000000000005 30.080000000000002 0.10080000000000001 16.485000000000003 0.8469000000000001 0.037625000000000006 595.05000000000007 26.195000000000004 0.057090000000000009 0.17760000000000001 0.015665000000000002 0.25335000000000008 0.20930000000000001 0.0060600000000000003 21.045000000000005
decision_type=2 2 2 2 2 2 2 2 2 2 2 2 2 2 2 2 2 2
left_child=1 2 4 -2 5 6 8 -5 9 11 -9 -1 -12 -13 -15 -14 -16 -18
right_child=3 -3 -4 7 -6 -7 -8 10 -10 -11 12 13 15 14 16 -17 17 -19
leaf_value=0.11033090286865077 -0.032151017113958284 -0.084908091300366528 -0.012782069536882171 -0.12282981552338501 0.032657156398252188 0.067986791785023121 0.15218081888235979 -0.11865514047580777 0.11631817155456442 0.11436830350977166 -0.11643548183505077 0.10957245025206491 -0.11556957224314773 0.10922873670725841 0.1090183662393544 -0.11585372922419697 0.10894497095371075 0.10888051044173762
leaf_weight=1.7565018162131512 4.7518163472414043 3.6421350315213195 2.9021214023232451 4.1347220167517653 4.7312734499573699 1.6608454734086979 1.6996602565050114 2.5067356154322615 2.0649497136473647 1.6677443608641613 3.0218013003468496 2.608221434056758 3.2627009376883507 2.3157453462481481 1.8951801285147665 2.478863425552845 1.5070127993822096 2.9213941767811775
leaf_count=21 25 20 21 30 38 15 8 20 20 16 25 33 28 30 25 21 20 39
internal_value=0.00112351 0.0647718 0.0844308 -0.0979419 0.0957936 0.110657 0.114501 -0.118236 0.110675 0.10988 -0.116551 0.109305 -0.115949 0.109145 0.109015 -0.115692 0.108937 0.108902
internal_weight=51.5294 31.3728 27.7307 20.1566 24.8285 20.0973 18.4364 15.4048 16.7367 14.6718 11.2701 13.0041 8.76337 11.2476 8.63933 5.74156 6.32359 4.42841
internal_count=455 306 286 149 265 227 212 124 204 184 94 168 74 147 114 49 84 59
is_linear=0
shrinkage=0.1


Tree=16
num_leaves=21
num_cat=0
split_feature=27 23 21 3 15 4 21 23 23 3 13 21 26 15 9 28 29 29 17 16
split_gain=29.1307 7.40485 5.35354 4.89442 0.408498 0.841224 0.393293 0.147413 0.00890212 0.000981974 0.000561292 0.000270015 0.000100541 7.3752e-05 4.54715e-05 1.77271e-05 1.07531e-05 1.87768e-06 7.44505e-07 1.72518e-07
threshold=0.11065000000000001 727.10000000000002 21.810000000000006 689.85000000000014 0.018265000000000003 0.094370000000000009 33.350000000000001 923.95000000000016 765.45000000000016 584.90000000000009 30.185000000000006 28.455000000000002 0.41140000000000004 0.034005000000000001 0.05791000000000001 0.25335000000000008 0.092205000000000023 0.085130000000000011 0.0087690000000000008 0.012510000000000002
decision_type=2 2 2 2 2 2 2 2 2 2 2 2 2 2 2 2 2 2 2 2
left_child=3 -2 -3 6 -4 -6 8 -7 9 10 11 13 -9 14 -1 -16 -14 18 19 -17
right_child=1 2 4 -5 5 7 -8 12 -10 -11 -12 -13 16 -15 15 17 -18 -19 -20 -21
leaf_value=0.10870042219122507 0.049290730317526399 0.0084121749657666053 -0.14616331621223724 -0.038119756336800287 -0.061887872173346285 -0.13945742575576578 0.060470861473292094 -0.11451594173416778 0.11670026326356409 0.11124653606545475 0.11050332536457859 0.10972249282127391 -0.11361301682304004 0.10896443854881324 0.10833642430901465 0.10802346552132047 -0.11390146116701749 0.10809852754617895 0.10790809824524919 0.10797497672642489
leaf_weight=1.4637271538376904 4.4260840564966228 4.2660691663622883 3.6266208216547993 2.7307673543691626 3.0396264269947997 3.1628856211900702 1.7920417860150326 2.868534214794634 1.6417516693472851 1.6735354810953129 1.5091014429926861 1.4915974512696255 2.2135465890169144 1.4037073180079449 2.1973881870508176 1.375054828822613 3.1059169322252274 1.5241056755185125 1.3576453030109403 1.5732972174882887
leaf_count=20 30 24 25 14 25 20 15 26 15 19 18 19 21 19 31 20 29 22 20 23
internal_value=0.00109962 -0.0688517 -0.0923182 0.0870651 -0.116169 -0.10861 0.105054 -0.121122 0.109697 0.108958 0.108682 0.108461 -0.114039 0.108288 0.108188 0.108094 -0.113781 0.108003 0.107969 0.107998
internal_weight=48.443 26.7093 22.2832 21.7337 18.0171 14.3905 19.003 11.3509 17.2109 15.5692 13.8956 12.3865 8.188 10.8949 9.49122 8.02749 5.31946 5.8301 4.306 2.94835
internal_count=455 200 170 255 146 121 241 96 226 211 192 174 76 155 136 116 50 85 63 43
is_linear=0
shrinkage=0.1


Tree=17
num_leaves=19
num_cat=0
split_feature=26 23 21 4 13 6 15 11 24 22 3 21 23 10 19 28 22 21
split_gain=25.5246 10.4664 3.84199 3.72914 2.18638 0.593005 0.542151 0.233303 0.215822 0.0641624 0.0622045 0.00608018 0.00109515 7.69431e-05 4.29323e-05 2.50687e-05 3.42491e-06 2.10767e-07
threshold=0.20140000000000005 727.10000000000002 21.810000000000006 0.10830000000000002 40.300000000000004 0.078660000000000022 0.046385000000000003 0.89220000000000022 0.13200000000000003 122.25000000000001 674.10000000000014 31.775000000000002 656.85000000000014 0.37205000000000005 0.0033420000000000004 0.25045000000000006 73.88000000000001 24.425000000000001
decision_type=2 2 2 2 2 2 2 2 2 2 2 2 2 2 2 2 2 2
left_child=4 3 -3 5 10 -2 7 -4 -9 -10 11 12 13 15 -11 -1 -17 -18
right_child=1 2 6 -5 -6 -7 -8 8 9 14 -12 -13 -14 -15 -16 16 17 -19
leaf_value=0.10759812462406815 0.058545915466826942 -0.0015819959164641404 -0.13833964188689279 -0.062498552112309404 0.00045798661516764888 0.13041095575979436 -0.071227761615294663 -0.088324660874917152 -0.13174371223900835 -0.11293056837828018 0.13016436715841639 0.11397310516694258 0.10981958726738313 0.10811591912535697 -0.11232726953436163 0.10735019058263028 0.10717810309485283 0.10712775499606562
leaf_weight=2.5496179051697272 1.9620779566466833 3.9748658090829876 4.1183088421821621 1.9922715201973913 2.0285660699009886 2.7681420668959618 2.9585424028336993 3.1467603221535665 2.7293398082256317 2.0222546383738518 1.531660422682761 2.008589267730712 2.5870191305875769 1.5737040713429449 2.8306333795189857 1.2697908133268354 2.1245071627199654 1.3660833127796648
leaf_count=39 27 23 33 14 13 24 28 24 20 20 10 19 33 23 29 20 34 22
internal_value=0.00107438 -0.0568088 -0.0904739 0.0522654 0.0978995 0.100602 -0.110318 -0.118107 -0.11034 -0.119477 0.111068 0.108898 0.108009 0.107482 -0.112579 0.107345 0.10721 0.107158
internal_weight=45.5427 28.5032 21.7807 6.72249 17.0395 4.73022 17.8058 14.8473 10.729 7.58223 15.011 13.4793 11.4707 8.8837 4.85289 7.31 4.76038 3.49059
internal_count=455 242 177 65 213 51 154 126 93 69 200 190 171 138 49 115 76 56
is_linear=0
shrinkage=0.1


Tree=18
num_leaves=20
num_cat=0
split_feature=27 23 23 21 7 21 17 23 27 21 21 8 21 27 17 9 16 8 18
split_gain=22.9588 6.37892 2.76872 4.86418 2.71271 1.41596 1.04843 0.0650785 0.0100163 0.00841934 0.00367327 0.000178327 7.35348e-05 3.64274e-05 1.77139e-05 1.75805e-05 8.56264e-06 2.44353e-06 2.83851e-07
threshold=0.14205000000000004 972.25000000000011 650.80000000000007 29.155000000000005 0.056200000000000007 20.845000000000002 0.022430000000000002 871.25000000000011 0.10975000000000001 24.760000000000002 33.190000000000005 0.20060000000000003 27.005000000000006 0.17870000000000003 0.015070000000000002 0.058500000000000003 0.026545000000000003 0.16910000000000003 0.021030000000000004
decision_type=2 2 2 2 2 2 2 2 2 2 2 2 2 2 2 2 2 2 2
left_child=1 2 8 5 -2 -4 7 -6 10 -9 11 12 15 -11 -15 -1 17 -17 -19
right_child=4 -3 3 -5 6 -7 -8 9 -10 13 -12 -13 -14 14 -16 16 -18 18 -20
leaf_value=0.10701021162538869 0.015289543589185012 -0.071731076087347773 0.12785776232391152 -0.074074079287749353 -0.12984532959626163 0.038831827085340151 -0.039597212307855872 -0.11830622140736767 0.11675398136051558 -0.11160039716504318 0.11280065672130546 0.10794883381826779 0.10741801056843558 -0.1109707258528556 -0.11136124177928784 0.10661058335653391 0.1067872330540614 0.10642763413771383 0.10649349823024659
leaf_weight=1.2152461670339159 2.1066236197948482 3.2439648509025565 3.4633312709629518 2.7734073325991631 2.9906485974788657 3.6901140473783016 2.0362130403518668 2.2302291542291623 1.3236378505825985 2.4137053340673447 1.2055957540869702 1.5825494788587082 1.5668711885809896 2.9379445761442184 1.9210602715611456 1.8004821464419363 1.6602154634892938 1.3619208447635176 1.2593846544623373
leaf_count=20 13 20 29 19 20 39 16 20 13 26 12 24 25 33 21 31 28 24 22
internal_value=0.00107708 0.0595103 0.0780995 0.0383475 -0.0907598 0.0819336 -0.106136 -0.11698 0.108511 -0.112931 0.107574 0.106971 0.106796 -0.111283 -0.111125 0.106663 0.106594 0.106521 0.106459
internal_weight=42.7831 26.1467 22.9028 9.92685 16.6364 7.15345 14.5298 12.4936 12.9759 9.50294 11.6523 10.4467 8.86412 7.27271 4.859 7.29725 6.082 4.42179 2.62131
internal_count=455 306 286 87 149 68 136 120 199 100 186 174 150 80 54 125 105 77 46
is_linear=0
shrinkage=0.1


Tree=19
num_leaves=20
num_cat=0
split_feature=26 23 21 13 13 27 28 3 27 21 21 23 4 15 10 28 27 22 21
split_gain=20.4109 8.55172 7.07884 2.8284 1.95986 1.54728 0.182138 0.0376328 0.0305132 0.0055327 0.00426796 0.000884557 0.000729225 4.41161e-05 4.02879e-05 1.44861e-05 5.14788e-06 1.83726e-06 1.19263e-07
threshold=0.20140000000000005 972.25000000000011 27.430000000000003 23.330000000000002 40.300000000000004 0.13495000000000004 0.27860000000000007 674.10000000000014 0.14840000000000003 25.020000000000003 31.775000000000002 656.85000000000014 0.096620000000000025 0.038820000000000007 0.37205000000000005 0.25045000000000006 0.19720000000000001 73.88000000000001 24.425000000000001
decision_type=2 2 2 2 2 2 2 2 2 2 2 2 2 2 2 2 2 2 2
left_child=4 2 3 6 7 -4 -2 10 -3 -10 11 14 -11 16 15 -1 -14 -17 -19
right_child=1 8 5 -5 -6 -7 -8 -9 9 12 -12 -13 13 -15 -16 17 -18 18 -20
leaf_value=0.10614513938092147 0.13553220946604266 -0.12416283001017117 -0.025545026350249411 -0.0033160623004321261 0.0014148762862924739 -0.12916088918513033 0.093770474142657212 0.1249868103316491 -0.11649958302366648 -0.11247104674829884 0.11193268368161886 0.10830907370826925 -0.11005491277213958 -0.1105578920240822 0.10654639849897513 0.10593404026312357 -0.10980746485939222 0.10579602585556834 0.10575441750273956
leaf_weight=2.1178668551146966 2.4880026243627089 2.7538771778345099 2.6335729360580444 3.482450645416975 1.9411481097340573 3.1830297410488129 1.7998170070350168 1.3625401221215714 2.2199344635009748 1.8355255275964735 1.7567229568958271 2.2473335079848766 1.740696653723717 1.720144100487232 1.3064975179731844 1.0525926537811758 1.6261517331004141 1.7605638913810255 1.1316935792565344
leaf_count=39 22 21 23 26 13 25 23 10 21 20 19 33 21 20 23 20 20 34 22
internal_value=0.00107724 -0.0530262 0.00117971 0.0636305 0.0950155 -0.0822469 0.118003 0.109282 -0.114935 -0.112155 0.1074 0.106572 -0.110762 -0.110146 0.106043 0.105934 -0.109935 0.105821 0.10578
internal_weight=40.1602 25.4832 13.5869 7.77027 14.677 5.8166 4.28782 12.7358 11.8963 9.14245 11.3733 9.61655 6.92252 5.08699 7.36921 6.06272 3.36685 3.94485 2.89226
internal_count=455 242 119 71 213 48 45 200 123 102 190 171 81 61 138 115 41 76 56
is_linear=0
shrinkage=0.1


Tree=20
num_leaves=21
num_cat=0
split_feature=27 23 21 9 7 25 6 27 20 21 7 21 23 24 27 12 26 8 24 11
split_gain=18.0561 5.62201 3.30548 2.29597 1.84931 0.581639 0.261211 0.105766 0.0236839 0.00409724 0.00271741 0.000370796 0.000137044 5.54217e-05 9.91066e-06 8.69811e-06 6.17812e-06 3.1487e-06 2.84541e-07 1.49757e-07
threshold=0.14575000000000002 972.25000000000011 33.350000000000001 0.056365000000000005 0.059420000000000008 0.32575000000000004 0.24975000000000006 0.11225000000000002 17.385000000000002 24.895000000000003 0.042860000000000009 29.055000000000003 641.55000000000007 0.13660000000000003 0.18440000000000004 2.5890000000000009 0.19360000000000002 0.15810000000000005 0.11835000000000002 1.2350000000000001
decision_type=2 2 2 2 2 2 2 2 2 2 2 2 2 2 2 2 2 2 2 2
left_child=1 2 3 -1 -2 7 8 10 -6 -10 11 12 15 -11 -15 16 17 -5 -19 -20
right_child=4 -3 -4 5 6 -7 -8 -9 9 13 -12 -13 -14 14 -16 -17 -18 18 19 -21
leaf_value=0.0060734752111642329 -0.0033507153854760783 -0.068153103809425436 -0.035651101555774299 0.10541436463846471 -0.12192528840395048 0.057343039079842631 -0.07012671446703711 0.12891413453766562 -0.11449902223372757 -0.10963101341524302 0.11099736557598888 0.10752497449708949 0.10644834680242879 -0.1091352610100665 -0.10880487404878708 0.10562724250050637 0.10552807773921796 0.10526334748971562 0.10521777200817134 0.10516965185384318
leaf_weight=2.9463297389447787 2.0150298103690139 3.3099060580134383 2.5010941401123992 1.0208463631570319 2.4407143816351873 2.4087610542774192 1.6270580664277066 2.5950363948941222 1.9466322883963583 1.674717992544174 1.1138027198612679 1.0626748129725445 1.3773722276091573 1.5317981317639353 2.2293173596262932 0.99516103416681279 1.0385102070868013 0.94975494593381915 1.7437183745205405 1.028047017753124
leaf_count=31 14 23 20 21 20 21 18 20 20 21 14 17 25 20 30 20 21 20 37 22
internal_value=0.001053 0.0528913 0.0721707 0.086923 -0.0916921 0.102458 -0.107239 0.110866 -0.113386 -0.110562 0.106332 0.105768 0.105539 -0.109152 -0.108939 0.105354 0.105307 0.105259 0.105216 0.1052
internal_weight=37.5563 24.091 20.7811 18.28 13.4653 15.3337 11.4502 12.9249 9.82318 7.38247 10.3299 9.21608 8.15341 5.43583 3.76112 6.77604 5.78088 4.74237 3.72152 2.77177
internal_count=455 312 289 269 143 238 129 217 111 91 197 183 166 71 50 141 121 100 79 59
is_linear=0
shrinkage=0.1


Tree=21
num_leaves=22
num_cat=0
split_feature=26 23 21 21 13 3 22 28 3 7 21 23 17 18 4 11 19 4 8 17 21
split_gain=16.5643 7.1377 4.43812 4.31207 1.75334 0.940803 1.6574 0.432378 0.0202264 0.0167503 0.00371152 0.000652857 0.000436117 5.94332e-05 2.98806e-05 1.77853e-05 7.53236e-06 5.57818e-06 4.45106e-06 9.44767e-08 4.77182e-08
threshold=0.20140000000000005 734.05000000000007 20.225000000000005 30.080000000000002 40.300000000000004 604.95000000000016 114.15000000000002 0.30335000000000006 674.10000000000014 0.065400000000000014 31.775000000000002 656.85000000000014 0.020985000000000004 0.020905000000000003 0.082115000000000007 1.1935000000000002 0.0042285000000000005 0.10395000000000001 0.16115000000000002 0.009160500000000002 21.745000000000001
decision_type=2 2 2 2 2 2 2 2 2 2 2 2 2 2 2 2 2 2 2 2 2
left_child=4 3 -3 7 8 -4 -7 -2 10 -8 11 14 13 15 -1 17 18 -11 -16 20 -20
right_child=1 2 5 -5 -6 6 9 -9 -10 12 -12 -13 -14 -15 16 -17 -18 -19 19 -21 -22
leaf_value=0.10534648595309426 0.1211630296855786 0.037569556893035518 -0.1580118541081198 -0.092407514433614654 0.0030861317314276101 -0.012793812514783363 -0.11881688202524854 0.053706405384640166 0.12008187909965987 -0.10778654081218508 0.11071379822177396 0.10703809725571474 -0.11022829655688125 -0.10879311505449576 0.10493689482474954 -0.10834848170514273 0.10504146403214468 -0.10806646808512058 0.10471029359458157 0.10465269888068617 0.10467890455379823
leaf_weight=1.324907835572956 2.7814757823944118 2.5631085857749012 2.7428558841347686 1.6525461375713346 1.8746726810932148 2.1114101186394683 2.0780306383967382 1.4432289265096185 1.19793240725994 1.470615476369858 1.5932206027209748 1.9233993440866468 1.3881695121526716 1.5306013897061346 0.89183131232857737 1.4888909310102461 1.0873820520937441 1.3797711506485937 0.85910611599683795 0.84945494681596745 1.1101585179567335
leaf_count=28 37 17 20 13 13 16 20 18 10 22 19 33 17 21 20 21 24 20 20 20 26
internal_value=0.0010374 -0.0502717 -0.083535 0.0445472 0.0923807 -0.105409 -0.0928056 0.0981187 0.107827 -0.110901 0.106304 0.105431 -0.108634 -0.108257 0.104926 -0.108068 0.10481 -0.107922 0.104742 0.104681 0.104693
internal_weight=35.3428 22.6307 16.7535 5.87725 12.7121 14.1903 11.4475 4.2247 10.8374 9.33608 9.63946 8.04624 7.25805 5.86988 6.12284 4.33928 4.79793 2.85039 3.71055 2.81872 1.96926
internal_count=455 242 174 68 213 157 137 55 200 121 190 171 101 84 138 63 110 42 86 66 46
is_linear=0
shrinkage=0.1


Tree=22
num_leaves=21
num_cat=0
split_feature=7 21 23 23 26 19 3 15 21 27 27 9 15 23 8 20 26 8 8 10
split_gain=14.6969 4.49827 4.3167 3.8704 3.5306 0.89822 3.55243 0.506733 0.0688513 0.012518 0.00255493 0.000399014 6.0264e-05 3.04516e-05 9.61257e-06 7.53419e-06 5.10902e-06 2.59971e-06 1.60413e-07 7.67426e-08
threshold=0.048920000000000012 29.435000000000006 765.45000000000016 810.55000000000007 0.36495000000000005 0.0016600000000000002 687.10000000000002 0.019960000000000002 24.005000000000003 0.11370000000000001 0.15740000000000001 0.056680000000000001 0.040515000000000002 641.55000000000007 0.19915000000000002 22.585000000000004 0.20875000000000002 0.15880000000000002 0.16990000000000002 0.26135000000000003
decision_type=2 2 2 2 2 2 2 2 2 2 2 2 2 2 2 2 2 2 2 2
left_child=1 5 -3 4 -2 -1 9 -5 -9 11 -10 -7 15 14 16 -12 17 -13 -19 -20
right_child=3 2 -4 7 -6 6 -8 8 10 -11 12 13 -14 -15 -16 -17 -18 18 19 -21
leaf_value=0.15764241162051607 0.081937777594882383 0.073498914350718106 -0.11084616978176008 -0.059443746528704912 -0.082797642698453425 0.10653157282641955 -0.080530429617939714 -0.12870933640505175 -0.11197555189296737 0.11466212063041817 -0.10697755319760943 0.10441172746925723 -0.10792333961837182 0.10498881695210616 0.10470237570094641 -0.10729244355516038 0.10454447037238951 0.10425897859266556 0.10422419662284961 0.10418264039050151
leaf_weight=2.0706982500851181 2.6784925088286391 2.6684972234070292 2.4242102727293968 2.1068342402577391 2.5297177731990814 1.1096876412630061 1.1450023651123036 2.3686545528471452 1.6659764163196085 1.5492320284247396 1.5213428214192393 1.009117413312197 1.4230818003416059 0.97906625643372525 0.79848069697618473 1.5179919674992559 0.8685481809079646 0.86170342564582858 1.049904443323612 0.77052912488579739
leaf_count=27 23 34 14 27 18 20 8 21 20 17 25 25 21 22 19 24 21 22 27 20
internal_value=0.00101923 0.064699 -0.0142523 -0.0686716 0.00192294 0.0976238 0.0853688 -0.103345 -0.11423 0.106484 -0.108634 0.104782 -0.107386 0.104476 0.104382 -0.107135 0.104326 0.104275 0.104223 0.104207
internal_weight=33.1168 17.3047 5.09271 15.8121 5.20821 12.212 10.1413 10.6039 8.49705 8.99627 6.12839 7.44704 4.46242 6.33735 5.35828 3.03933 4.5598 3.69125 2.68214 1.82043
internal_count=455 276 48 179 41 228 201 138 111 193 90 176 70 156 134 49 115 94 69 47
is_linear=0
shrinkage=0.1


Tree=23
num_leaves=21
num_cat=0
split_feature=26 23 24 29 23 13 28 3 27 21 21 23 4 4 12 27 19 28 19 3
split_gain=13.1082 6.11623 4.90094 3.12945 2.95735 1.69908 0.0288883 0.0164376 0.0140605 0.00282769 0.00244662 0.000340738 0.000300875 1.74905e-05 1.26105e-05 6.22657e-06 5.74948e-06 2.20969e-06 3.5575e-07 2.45889e-08
threshold=0.20140000000000005 972.25000000000011 0.13755000000000003 0.076240000000000016 650.80000000000007 40.300000000000004 0.28225000000000006 674.10000000000014 0.14575000000000002 25.020000000000003 31.775000000000002 656.85000000000014 0.096620000000000025 0.082115000000000007 5.158500000000001 0.19525000000000001 0.0042285000000000005 0.25115000000000004 0.0020625000000000005 412.65000000000003
decision_type=2 2 2 2 2 2 2 2 2 2 2 2 2 2 2 2 2 2 2 2
left_child=5 2 3 -2 -4 7 -5 10 -3 -10 11 13 -11 -1 15 -14 17 -15 -19 -20
right_child=1 8 4 6 -6 -7 -8 -9 9 12 -12 -13 14 16 -16 -17 -18 18 19 -21
leaf_value=0.10433922110181222 -0.041921310530768627 -0.11800143173087758 0.030817116957673675 0.12667549934312697 -0.11915284052899087 0.0011863017189856055 0.1093466685337504 0.11823495933275219 -0.11192655519978496 -0.10842404475429707 0.10901534958673656 0.10566510448090194 -0.10671770802728962 0.10397326533070628 -0.10694202474085923 -0.10639657132031864 0.10410929056641577 0.10371362484787122 0.10381162341307666 0.1037869971164575
leaf_weight=1.0944088511168972 1.8149886354804055 1.9380042478442172 2.0654706694185734 1.7364827208220961 3.6184501275420189 1.8309883624315251 2.1570198945701122 1.0977259874343861 1.648287162184715 1.3664101622998712 1.380865655839443 1.5888238437473772 1.1750948578119285 0.73060346767306406 1.2687681242823599 1.241814251989126 0.90074168890714634 0.69011443853378329 0.81339878961443879 0.80842972919344902
leaf_count=28 15 18 26 19 35 13 24 10 21 21 19 33 20 20 21 22 24 20 23 23
internal_value=0.00103137 -0.0470421 0.00107522 0.066523 -0.0646555 0.0890837 0.117075 0.106759 -0.1105 -0.10833 0.105186 0.104388 -0.107157 0.103986 -0.106687 -0.106553 0.103887 0.103822 0.103774 0.103799
internal_weight=30.9669 20.0308 11.3924 5.70849 5.68392 10.9361 3.8935 9.10511 8.63838 6.70037 8.00739 6.62652 5.05209 5.0377 3.68568 2.41691 3.94329 3.04255 2.31194 1.62183
internal_count=455 242 119 58 61 213 43 200 123 105 190 171 84 138 63 42 110 86 66 46
is_linear=0
shrinkage=0.1


Tree=24
num_leaves=21
num_cat=0
split_feature=26 23 21 24 13 19 25 3 27 21 21 23 4 4 12 27 19 8 9 29
split_gain=11.5314 5.5875 4.58399 2.15516 1.6539 1.44807 0.0591665 0.0119303 0.0102028 0.00207307 0.00178212 0.000249701 0.000224335 1.28309e-05 9.16074e-06 4.52813e-06 4.21724e-06 1.62152e-06 2.37862e-07 1.96939e-08
threshold=0.20140000000000005 972.25000000000011 27.430000000000003 0.13755000000000003 40.300000000000004 0.0033790000000000005 0.27340000000000003 674.10000000000014 0.14575000000000002 25.020000000000003 31.775000000000002 656.85000000000014 0.096620000000000025 0.082115000000000007 5.158500000000001 0.19525000000000001 0.0042285000000000005 0.16115000000000002 0.06124000000000001 0.078095000000000012
decision_type=2 2 2 2 2 2 2 2 2 2 2 2 2 2 2 2 2 2 2 2
left_child=4 2 3 6 7 -4 -2 10 -3 -10 11 13 -11 -1 15 -14 17 -15 -19 -20
right_child=1 8 5 -5 -6 -7 -8 -9 9 12 -12 -13 14 16 -16 -17 -18 18 19 -21
leaf_value=0.10390998499823015 0.097167614416150738 -0.11609222487250088 -0.13954558758925278 -0.0068181507506503538 0.0010676556607985006 -0.027063499424798472 0.12388033668582443 0.11627192523308919 -0.11070926798303334 -0.10758188584363354 0.10809039264756636 0.10510010073932141 -0.10603807823444628 0.10358111445614336 -0.10623837594158302 -0.10575103092994019 0.10370334153752303 0.1033567969974359 0.10341539534325959 0.1034396170407671
leaf_weight=0.99414407275617289 1.4931690953671952 1.7809341512620438 1.9295258484780786 2.7990678586065769 1.8310145251452912 2.8131922967731953 1.8645620644092558 1.0091697759926317 1.5069906488060949 1.24556278437376 1.2596036456525324 1.4449612367898224 1.0697363801300532 0.66352955996990282 1.1552440039813516 1.1301486678421495 0.81805252283811558 0.75364672206342254 0.70248813554644562 0.64286250248551369
leaf_count=28 20 18 16 31 13 32 20 10 21 21 19 33 20 20 21 22 24 24 22 20
internal_value=0.00102189 -0.0453305 0.00106373 0.0579824 0.0870811 -0.0728257 0.112001 0.106082 -0.109432 -0.10749 0.10467 0.103954 -0.106436 0.103592 -0.10601 -0.105891 0.103504 0.103445 0.103402 0.103427
internal_weight=28.9076 18.7881 10.8995 6.1568 10.1195 4.74272 3.35773 8.28846 7.88862 6.10768 7.27929 6.01968 4.60069 4.57472 3.35513 2.19989 3.58058 2.76253 2.099 1.34535
internal_count=455 242 119 71 213 48 40 200 123 105 190 171 84 138 63 42 110 86 66 42
is_linear=0
shrinkage=0.1


Tree=25
num_leaves=22
num_cat=0
split_feature=7 21 23 23 21 25 10 20 26 23 27 20 21 26 23 27 12 8 26 3 9
split_gain=10.4554 3.79859 3.0572 2.95616 2.81092 1.41686 0.855314 0.670807 0.549433 0.0441149 0.00689363 0.0019528 0.000829917 0.000146505 6.08456e-05 5.09336e-05 1.3606e-05 5.69856e-06 2.7693e-06 1.47856e-06 1.48141e-07
threshold=0.048920000000000012 29.435000000000006 765.45000000000016 810.55000000000007 27.720000000000002 0.067675000000000013 0.47595000000000004 17.285000000000004 0.26145000000000002 981.05000000000007 0.13495000000000004 15.955000000000002 25.080000000000002 0.21965000000000004 682.55000000000007 0.16700000000000001 5.7020000000000008 0.16675000000000004 0.10425000000000002 1090.0000000000002 0.062190000000000002
decision_type=2 2 2 2 2 2 2 2 2 2 2 2 2 2 2 2 2 2 2 2 2
left_child=1 5 -3 4 -2 -1 7 10 -5 -10 11 13 -11 14 17 -14 19 18 -7 -17 -19
right_child=3 2 -4 8 -6 6 -8 -9 9 12 -12 -13 15 -15 -16 16 -18 20 -20 -21 -22
leaf_value=-0.053065285513071304 0.065438558667881536 0.065803580482114044 -0.099491062424707219 -0.039546011003504376 -0.092817903999127455 0.10317915493067438 0.20058580966372311 0.015872715237908716 -0.12520343525349362 -0.10859022076833809 0.11423783213893882 0.10870713034380514 -0.10621560474035051 0.10453743283733019 0.10419475655234778 -0.10520103129941952 -0.10572051931263662 0.10304660315038983 0.10344870495952006 -0.10536811468721761 0.1031001623923084
leaf_weight=0.60494036413729446 2.7182705998420706 2.2582348156720391 2.217886820435524 1.2888717278838138 1.9116396345198152 0.68423802964388991 0.84850131347775537 0.94512955844402302 1.5924431085586546 1.2117935605347154 0.78235257789492596 0.87510020472109307 1.0789220854640005 1.3650585636496542 0.71214499883353699 1.1730253286659724 1.0187265388667581 0.94621468707919154 0.86044511571526527 0.96561035513877858 1.1369475293904541
leaf_count=14 24 34 14 14 17 23 10 6 19 20 8 14 20 35 19 25 20 33 27 20 39
internal_value=0.00102361 0.0601788 -0.0160988 -0.0639648 9.61846e-05 0.0951574 0.10495 0.0951826 -0.0995732 -0.110562 0.105364 0.104309 -0.106283 0.103634 0.10335 -0.105622 -0.10542 0.103184 0.103329 -0.105276 0.103076
internal_weight=27.1965 14.2372 4.47612 12.9593 4.62991 9.76107 9.15613 8.30763 8.32939 7.04052 7.3625 6.58015 5.44808 5.70505 4.33999 4.23628 3.15736 3.62785 1.54468 2.13864 2.08316
internal_count=455 276 48 179 41 228 214 204 138 124 198 190 105 176 141 85 65 122 50 45 72
is_linear=0
shrinkage=0.1


Tree=26
num_leaves=21
num_cat=0
split_feature=27 13 21 23 25 13 6 16 27 22 20 17 9 6 26 9 21 28 8 22
split_gain=9.53976 5.10991 5.55894 3.38522 1.27563 0.582149 0.518949 0.0737136 0.0735778 0.0153923 0.00135663 0.00100932 9.04409e-05 5.46091e-05 8.66199e-06 4.74658e-06 2.19876e-06 1.91095e-06 1.86445e-07 1.00207e-07
threshold=0.16030000000000003 53.975000000000001 29.155000000000005 650.80000000000007 0.28835000000000005 40.990000000000002 0.092575000000000018 0.06511500000000002 0.10195000000000001 117.15000000000002 15.955000000000002 0.018280000000000001 0.056860000000000008 0.19425000000000003 0.19025000000000003 0.05886000000000001 28.200000000000003 0.24205000000000002 0.18135000000000004 79.595000000000013
decision_type=2 2 2 2 2 2 2 2 2 2 2 2 2 2 2 2 2 2 2 2
left_child=1 2 4 -4 5 6 8 9 10 -2 12 13 -1 16 15 -14 -11 -17 -19 -20
right_child=7 -3 3 -5 -6 -7 -8 -9 -10 11 -12 -13 14 -15 -16 17 -18 18 19 -21
leaf_value=0.1041224568095851 -0.11785844726183732 -0.1339900091147242 0.082378105584856837 -0.083764922944825917 0.033951928846515121 0.19006965421135447 0.022501216047932569 -0.080831966772495364 0.1269051125104233 -0.10461202804578772 0.10762034119164375 -0.10880905509578498 0.1031532396399913 -0.10567763802632957 0.10330670102005701 0.10298644686388164 -0.10482533268215154 0.10282251596761607 0.10273140468518904 0.10279334104649376
leaf_weight=0.80210266821087106 1.521395444869994 1.6122269108891476 1.8119684867560852 3.7946764081716537 2.9756314344704142 0.81573630124330598 0.75516102090477932 1.0915877707302568 1.8333866428583858 0.83979139849543649 0.79398460499942292 0.93615295737981785 0.58582861907780248 0.89096587896347035 0.6023610159754752 0.67203611508011851 1.1382744163274763 1.0398045368492606 0.51688068732619263 0.52812565676867962
leaf_count=22 17 23 29 33 37 7 11 19 20 20 14 15 20 19 20 24 26 39 20 20
internal_value=0.000998525 0.0363771 0.0520478 -0.0300704 0.0906692 0.109536 0.101455 -0.104506 0.10954 -0.109357 0.103794 -0.105958 0.103154 -0.105028 0.102958 0.102895 -0.104735 0.10284 0.102793 0.102763
internal_weight=25.5581 19.1399 17.5277 5.60664 11.921 8.94541 8.12967 6.41817 7.37451 5.32658 5.54112 3.80518 4.74714 2.86903 3.94504 3.34268 1.97807 2.75685 2.08481 1.04501
internal_count=455 339 316 62 254 217 210 116 199 97 179 80 165 65 143 123 46 103 79 40
is_linear=0
shrinkage=0.1


Tree=27
num_leaves=23
num_cat=0
split_feature=27 13 21 23 25 6 23 16 27 13 3 21 22 13 3 26 8 24 20 8 9 21
split_gain=8.429 4.46196 4.85202 2.82959 1.26385 0.627705 0.436186 0.0951402 0.0523934 0.0117072 0.00618485 0.000979187 0.000431295 6.41329e-05 4.38541e-05 6.79042e-06 4.01784e-06 3.31283e-06 2.72213e-06 1.52501e-06 1.00672e-07 2.88056e-08
threshold=0.16030000000000003 53.975000000000001 29.155000000000005 650.80000000000007 0.28835000000000005 0.092835000000000015 930.10000000000002 0.066270000000000009 0.13495000000000004 31.200000000000003 680.80000000000007 24.895000000000003 101.05000000000003 29.935000000000006 538.80000000000007 0.19025000000000003 0.18015000000000003 0.11045000000000001 22.585000000000004 0.16115000000000002 0.06124000000000001 21.655000000000005
decision_type=2 2 2 2 2 2 2 2 2 2 2 2 2 2 2 2 2 2 2 2 2 2
left_child=1 2 4 -4 5 6 8 9 10 -2 12 -11 13 14 15 17 -13 -1 -18 -19 -21 -22
right_child=7 -3 3 -5 -6 -7 -8 -9 -10 11 -12 16 -14 -15 -16 -17 18 19 -20 20 21 -23
leaf_value=0.10280561079421602 -0.11624588608446501 -0.13110253599371566 0.078848710292487773 -0.07642055292601703 0.0309417334912311 0.019633770835710038 0.18366371588023614 -0.073330558906564564 0.13367415975663996 -0.10784519963554969 0.11360082432095164 -0.10446926601294147 0.10583467004990527 0.10392730322956385 0.10351268855814169 0.10297989679639535 -0.1040568566583062 0.10268840971556395 -0.104314309900012 0.10245771158032796 0.10252985764918637 0.1024983453239651
leaf_weight=0.63022219389678014 1.3755242228507985 1.4893513955175866 1.7091905381530512 3.7461211830377579 2.9405405260622492 0.74340609461069096 0.84465046226978291 0.91609604656696308 0.68076588213443745 1.1255941987037661 0.65080247446894635 0.81549752876162562 0.58596233837306488 0.59812454134225834 0.74864383786916722 0.57719696685671795 0.74821329861879327 0.55733870342373881 0.91039624065160751 0.46785170957446087 0.52931453660130479 0.64180407300591469
leaf_count=24 16 23 29 33 37 10 4 17 4 20 8 20 13 18 24 21 20 22 23 20 22 27
internal_value=0.000978322 0.0347272 0.0495591 -0.0277735 0.0872377 0.107288 0.115962 -0.102946 0.107386 -0.108399 0.104397 -0.1054 0.103275 0.102959 0.10282 0.102667 -0.104288 0.102604 -0.104198 0.102546 0.102497 0.102513
internal_weight=24.0326 18.1413 16.6519 5.45531 11.1966 8.25608 7.51268 5.89132 6.66803 4.97523 5.98726 3.5997 5.33646 4.7505 4.15237 3.40373 2.47411 2.82653 1.65861 2.19631 1.63897 1.17112
internal_count=455 339 316 62 254 217 207 116 203 99 199 83 191 178 160 136 63 115 43 91 69 49
is_linear=0
shrinkage=0.1


Tree=28
num_leaves=21
num_cat=0
split_feature=27 23 21 15 7 23 4 6 23 25 21 21 9 26 24 4 8 5 28 16
split_gain=7.44371 4.04208 3.86787 2.57392 2.47947 1.51348 0.377474 0.116224 0.0117039 0.00535685 0.00114097 0.000579151 4.12872e-05 3.42895e-05 1.02365e-05 2.55877e-06 1.09789e-06 1.05196e-06 8.53129e-07 5.01327e-08
threshold=0.16030000000000003 650.80000000000007 20.225000000000005 0.012025000000000003 0.039275000000000004 784.1500000000002 0.11710000000000002 0.24325000000000002 754.05000000000007 0.35880000000000006 29.255000000000006 25.080000000000002 0.066640000000000019 0.21965000000000004 0.10395000000000001 0.10075000000000002 0.16675000000000004 0.082925000000000013 0.24875000000000003 0.015215000000000001
decision_type=2 2 2 2 2 2 2 2 2 2 2 2 2 2 2 2 2 2 2 2
left_child=1 6 -3 -4 -5 -6 9 8 -2 10 13 -10 15 14 -1 -13 18 19 -16 -18
right_child=7 2 3 4 5 -7 -8 -9 11 -11 -12 12 -14 -15 16 -17 17 -19 -20 -21
leaf_value=0.10282125074272708 -0.11702305587764528 0.10522622350036831 -0.1368293665997381 0.074593927818457251 0.031197144759787493 -0.097525603597094349 0.01997092114431688 -0.067861674614399223 -0.10695696351674495 0.11279892200968332 0.10610238135107285 -0.1039876592092176 -0.10478290297339976 0.10320225030647814 0.10250900504256298 -0.10373702339266583 0.10222254488394195 0.10242413874304745 0.10232543067260332 0.10226664277768456
leaf_weight=0.56677835807204946 1.0579710938036431 2.5096862521022549 1.9528619740158299 2.4066533148288727 1.3880325928330419 2.6712718904018402 0.58097086660563935 0.86732078716158856 1.0645812880247834 0.69422064907848824 1.2120552342385051 0.99152179434895538 0.73538340628147114 0.72184439189732064 0.59167765639722369 0.69133882410824299 0.59483689442276932 0.45188266225159157 0.44247707724571228 0.45499652251601219
leaf_count=22 10 31 22 34 11 38 8 20 21 9 25 27 18 25 25 20 28 20 20 21
internal_value=0.000954091 0.0330632 -0.00373492 -0.0362167 -0.00582946 -0.0535103 0.0967774 -0.101405 -0.107812 0.104564 0.103429 -0.105013 -0.104158 0.102581 0.102437 -0.103885 0.102351 0.102297 0.10243 0.102242
internal_weight=22.6484 17.2402 10.9285 8.41882 6.46596 4.0593 6.31174 5.40812 4.5408 5.73077 5.03655 3.48283 2.41824 3.82449 3.10265 1.68286 2.53587 1.50172 1.03415 1.04983
internal_count=455 339 136 105 83 49 203 116 96 195 186 86 65 161 136 47 114 69 45 49
is_linear=0
shrinkage=0.1


Tree=29
num_leaves=21
num_cat=0
split_feature=26 23 24 29 20 13 29 6 22 21 21 22 20 16 4 6 11 28 3 9
split_gain=6.62501 3.79678 3.12456 2.80197 2.36154 1.66574 0.0203461 0.00949986 0.00499278 0.00125009 0.000878513 0.000441473 7.13303e-05 4.78241e-05 8.15879e-06 5.62327e-06 1.12125e-06 9.42328e-07 6.5442e-07 6.25831e-08
threshold=0.20140000000000005 972.25000000000011 0.13755000000000003 0.074540000000000009 14.465000000000002 40.300000000000004 0.089550000000000005 0.086575000000000013 105.40000000000002 24.555000000000003 31.885000000000002 101.05000000000003 14.645000000000001 0.055535000000000008 0.083790000000000017 0.12220000000000002 1.8025000000000002 0.25335000000000008 1182.5000000000002 0.062190000000000002
decision_type=2 2 2 2 2 2 2 2 2 2 2 2 2 2 2 2 2 2 2 2
left_child=5 2 3 -2 -4 8 -5 -3 10 -9 11 12 14 15 -1 -11 17 -16 -17 -19
right_child=1 7 4 6 -6 -7 -8 9 -10 13 -12 -13 -14 -15 16 18 -18 19 -20 -21
leaf_value=0.10250440728092668 -0.060043868043506234 -0.11571782985541375 0.040834622922982233 0.1041602173018857 -0.1120183717271489 -0.010304367745648458 0.12046982316838105 -0.10774191349807767 0.11278166046201779 -0.10382250333949028 0.10635842937954915 0.10565993885652442 0.10331328833152793 -0.1045038481813113 0.10220465273556389 -0.10343356832800138 0.10227121441060379 0.10201509491306093 -0.10356008077954887 0.10206033899686839
leaf_weight=0.75419007241726266 1.3469321113079766 0.986264668405055 1.5552968699485061 1.4260650947690012 2.886913726106286 1.6308993026614187 1.6497167386114595 1.0843664351850746 0.64550937712192524 0.7016926798969515 0.85062691941857327 0.48559756018221367 0.75658604130148877 0.74155147373676289 0.4820180702954534 0.9927215017378328 0.40436447598040093 0.56104453653097131 0.69521370157599449 0.67181417904794216
leaf_count=33 14 11 25 23 36 13 21 21 7 20 17 12 26 19 23 31 19 29 21 34
internal_value=0.000948554 -0.0390606 0.000736375 0.0602357 -0.0585018 0.0786548 0.112908 -0.106883 0.104508 -0.104816 0.103433 0.102828 0.102449 -0.103802 0.102222 -0.103585 0.102121 0.102086 -0.103486 0.10204
internal_weight=21.3094 14.0667 8.86492 4.42271 4.44221 7.24265 3.07578 5.20181 5.61175 4.21555 4.96624 4.11561 3.63002 3.13118 2.87343 2.38963 2.11924 1.71488 1.68794 1.23286
internal_count=455 242 119 58 61 213 44 123 200 112 193 176 164 91 138 72 105 86 52 63
is_linear=0
shrinkage=0.1


Tree=30
num_leaves=21
num_cat=0
split_feature=27 13 21 22 23 6 27 23 5 22 21 7 26 9 3 26 4 8 28 11
split_gain=5.92188 3.38963 3.97921 1.56225 1.20558 0.129361 0.0481693 0.00739404 0.00402378 0.000479664 0.000313216 8.77271e-05 3.96815e-05 3.83566e-05 2.32202e-05 1.94314e-06 1.48848e-06 8.30564e-07 3.84508e-07 7.80326e-08
threshold=0.16030000000000003 53.975000000000001 29.155000000000005 101.05000000000003 810.55000000000007 0.24325000000000002 0.14350000000000002 754.05000000000007 0.13265000000000002 101.05000000000003 25.020000000000003 0.038020000000000005 0.21965000000000004 0.066640000000000019 514.40000000000009 0.024655000000000003 0.10075000000000002 0.16765000000000005 0.25115000000000004 1.2150000000000001
decision_type=2 2 2 2 2 2 2 2 2 2 2 2 2 2 2 2 2 2 2 2
left_child=1 2 4 -4 6 7 8 -2 9 11 -9 12 14 16 15 -1 -12 18 -17 -19
right_child=5 -3 3 -5 -6 -7 -8 10 -10 -11 13 -13 -14 -15 -16 17 -18 19 -20 -21
leaf_value=0.10216342353027275 -0.11441501748012078 -0.1276680151079759 0.036217305073008188 -0.078853125094731358 0.030432684197532579 -0.061461040326181361 0.12821716849035517 -0.10571981592335278 0.11090978985195671 0.10565967846251541 -0.10323681570484976 0.10379961014324977 0.10293909371911972 -0.10409402259956697 0.10262167768676618 0.10204771630107159 -0.10302900624744926 0.10183765224777555 0.10191509032428181 0.10189539842820328
leaf_weight=0.3957032673060924 0.91841303929686491 1.2425781339406956 2.0743524059653273 2.7360215485095978 2.9863480851054192 0.76213317364454258 0.95594320446252812 0.85313332639634643 0.70179662853479374 0.51699402555823315 0.81662863120436691 0.4198272619396447 0.72421200014650811 0.61723984219133843 0.69351578876376141 0.50642814487218846 0.59640218876302242 0.65487721748650052 0.38461963832378387 0.36411725915968418
leaf_count=20 10 23 37 25 29 20 7 20 10 13 27 14 28 18 29 26 21 37 21 20
internal_value=0.000950496 0.0306729 0.0446123 -0.0292319 0.0827898 -0.099063 0.107537 -0.106601 0.103851 0.102788 -0.104112 0.102429 0.102275 -0.103436 0.102114 0.101962 -0.103149 0.10192 0.10199 0.101858
internal_weight=19.9213 15.3573 14.1148 4.81037 9.30438 4.56395 6.31803 3.80182 5.36209 4.66029 2.8834 4.1433 3.72347 2.03027 2.99926 2.30575 1.41303 1.91004 0.891048 1.01899
internal_count=455 339 316 62 254 116 225 96 218 208 86 195 181 66 153 124 48 104 47 57
is_linear=0
shrinkage=0.1


Tree=31
num_leaves=22
num_cat=0
split_feature=26 23 24 25 20 13 29 7 22 21 21 22 20 16 6 4 11 3 28 15 29
split_gain=5.38299 3.18933 2.62591 2.5196 1.93359 1.45428 0.0198115 0.00900014 0.00321 0.000656787 0.000621554 0.000265475 4.13266e-05 2.51731e-05 6.27033e-06 5.15325e-06 9.55532e-07 8.60096e-07 4.9647e-07 4.05302e-08 1.6771e-08
threshold=0.20140000000000005 972.25000000000011 0.13755000000000003 0.20550000000000004 14.465000000000002 40.300000000000004 0.089550000000000005 0.052555000000000004 105.40000000000002 24.555000000000003 31.885000000000002 101.05000000000003 14.645000000000001 0.055535000000000008 0.11840000000000002 0.083790000000000017 1.8025000000000002 1182.5000000000002 0.25335000000000008 0.016870000000000003 0.077320000000000014
decision_type=2 2 2 2 2 2 2 2 2 2 2 2 2 2 2 2 2 2 2 2 2
left_child=5 2 3 -2 -4 8 -5 -3 10 -9 11 12 15 14 -11 -1 18 -16 -17 20 -20
right_child=1 7 4 6 -6 -7 -8 9 -10 13 -12 -13 -14 -15 17 16 -18 -19 19 -21 -22
leaf_value=0.10207316117460315 -0.059915418147791381 -0.11578593256807775 0.035681658024783708 0.10150211211132475 -0.10866966174197584 -0.0067131171075602838 0.11842671530103042 -0.10624612735407973 0.11091261993131044 -0.10321924992828049 0.10552536082591371 0.10472438235389209 0.10273943471406805 -0.10368902068445307 -0.10278015798803704 0.10179739452215303 0.10188998829554129 -0.10293848873989031 0.10163465858261721 0.10169434452331794 0.10166600910589148
leaf_weight=0.62518965825438888 1.2651417497545461 0.77622295916080375 1.4451214112341402 1.3183939978480341 2.5929068401455879 1.5879840850830076 1.4548842348158357 0.90322861447930369 0.57112249359488476 0.652887327596546 0.74937910400331009 0.41217326372861851 0.62742244265973557 0.61998303607106198 0.84007483534514882 0.39610066730529059 0.33657112345099438 0.57995804026722908 0.31628247071057536 0.32702513877302408 0.3705447856336832
leaf_count=33 13 8 25 24 36 13 21 21 7 22 17 12 26 19 32 23 19 21 20 20 23
internal_value=0.000929356 -0.0372285 1.35528e-05 0.0570311 -0.0570095 0.076093 0.110381 -0.106021 0.103883 -0.103913 0.102918 0.102345 0.102018 -0.10313 -0.102963 0.101827 0.101739 -0.102845 0.101702 0.101665 0.101652
internal_weight=18.7686 12.4488 8.07645 4.03842 4.03803 6.3198 2.77328 4.37235 4.73181 3.59613 4.16069 3.41131 2.99914 2.6929 2.07292 2.37171 1.74652 1.42003 1.40995 1.01385 0.686827
internal_count=455 242 119 58 61 213 45 123 200 115 193 176 164 94 75 138 105 53 86 63 43
is_linear=0
shrinkage=0.1


Tree=32
num_leaves=20
num_cat=0
split_feature=7 23 5 23 26 24 26 22 26 21 21 19 26 13 9 22 24 8 16
split_gain=4.71862 2.06271 2.85888 1.78526 1.81832 1.31396 0.510026 0.0461873 0.00331402 0.000489128 0.000432243 2.99346e-05 2.58438e-05 5.14028e-06 2.99248e-06 1.00174e-06 6.16552e-07 2.69716e-07 3.08675e-08
threshold=0.048920000000000012 650.80000000000007 0.06056000000000001 810.55000000000007 0.36495000000000005 0.12345000000000002 0.23965000000000003 111.50000000000001 0.38700000000000007 29.255000000000006 24.005000000000003 0.0056090000000000003 0.21080000000000002 28.205000000000002 0.059280000000000006 147.40000000000001 0.11045000000000001 0.16675000000000004 0.015040000000000003
decision_type=2 2 2 2 2 2 2 2 2 2 2 2 2 2 2 2 2 2 2
left_child=1 8 -3 4 -2 -4 -5 -8 9 12 -9 14 13 16 -12 -16 -1 -18 -19
right_child=3 2 5 6 -6 -7 7 10 -10 -11 11 -13 -14 -15 15 -17 17 18 -20
leaf_value=0.10168882268222057 0.073021341220199251 -0.10760479303469846 0.10190261588399259 -0.011502431801187324 -0.076326614958807493 -0.012565717673092848 -0.13270907333550447 -0.1054689001555226 0.11196837540604031 0.10449803832531612 -0.1028151081278262 -0.10350321491738455 0.10240433909133431 0.10202173747490498 -0.10249604227082035 -0.10267191551013409 0.1015989663586451 0.10148881726140738 0.1015265514607304
leaf_weight=0.37151496019214736 1.6915999334305518 1.524931453168392 2.3379012355580926 0.6320876870304345 1.5735343061387537 1.7559931594878433 0.63920004665851582 0.80927575007081065 0.41061318852007378 0.89770979247987259 0.78535783290863115 0.52577566541731346 0.55617301817983378 0.29900898225605477 0.78003720566630341 0.55377487279474735 0.5526551231741903 0.38998718187212944 0.48812304809689522
leaf_count=23 23 22 35 9 18 25 6 21 7 25 30 17 26 17 33 22 36 27 33
internal_value=0.000932402 0.0482432 0.00926938 -0.0558159 0.00104754 0.0528037 -0.0951063 -0.108016 0.103462 0.10248 -0.103447 -0.102828 0.101798 0.101638 -0.10266 -0.102569 0.101574 0.101544 0.10151
internal_weight=17.5753 9.58461 5.61883 7.99064 3.26513 4.09389 4.72551 4.09342 3.96579 3.55517 3.45422 2.64495 2.65746 2.10129 2.11917 1.33381 1.80228 1.43077 0.87811
internal_count=455 276 82 179 41 60 138 129 194 187 123 102 162 136 85 55 119 96 60
is_linear=0
shrinkage=0.1


Tree=33
num_leaves=23
num_cat=0
split_feature=26 23 21 12 23 7 21 28 3 27 7 22 21 23 23 27 5 24 29 14 28 16
split_gain=4.33669 2.69875 2.36298 1.74051 1.53761 0.939579 0.85116 0.377117 0.2703 0.0138599 0.00767433 0.00240389 0.000371395 0.000257113 5.06638e-05 1.60303e-05 4.05823e-06 2.3869e-06 3.90308e-07 2.36637e-07 3.44394e-07 1.42642e-08
threshold=0.20140000000000005 972.25000000000011 32.000000000000007 3.9625000000000008 734.05000000000007 0.048920000000000012 31.420000000000005 0.30335000000000006 863.80000000000007 0.12830000000000003 0.051855000000000005 105.40000000000002 24.555000000000003 754.05000000000007 641.55000000000007 0.15740000000000001 0.18715000000000001 0.10395000000000001 0.083090000000000011 0.011035000000000001 0.25115000000000004 0.015215000000000001
decision_type=2 2 2 2 2 2 2 2 2 2 2 2 2 2 2 2 2 2 2 2 2 2
left_child=3 2 4 6 7 -6 8 9 11 -2 -3 13 -12 14 17 -14 18 -1 -17 20 -19 -22
right_child=1 10 -4 -5 5 -7 -8 -9 -10 -11 12 -13 15 -15 -16 16 -18 19 -20 -21 21 -23
leaf_value=0.10170080358368488 0.10457563043289653 -0.11502777693778062 -0.1117153065308658 -0.10260525070923113 0.052755833819957645 -0.058690891894175673 0.01885821151989233 0.033655624656839647 0.18245853126433187 0.1226926815406674 -0.10514227498330085 0.10951071124431361 -0.10305321796504972 0.10466682801819292 0.10248363960359269 -0.10240241001567868 -0.1026673311506055 0.10147565746649637 -0.10228546117665359 0.10149057324519578 0.10134363321620535 0.10136849440392902
leaf_weight=0.33450295217335657 0.83989105653017604 0.67336345463991198 1.5169363431632517 0.51663535088300694 1.2001708522439005 2.0462739523500204 1.2661727480590341 0.90393786132335652 0.49369461834430683 0.84921937063336372 0.75237918458879027 0.51312016695737828 0.53801888413727317 0.33717771805822838 0.652217830531299 0.45617969706654526 0.50107907317578781 0.32657268457114674 0.76216748915612698 0.27037693094462145 0.45748399198055267 0.46572321560233831
leaf_count=21 32 7 19 7 12 28 24 19 2 9 21 7 20 10 30 20 20 23 35 19 35 35
internal_value=0.000930901 -0.0355015 -0.000516406 0.0723229 0.0283699 -0.0174904 0.0899843 0.0857862 0.113371 0.113684 -0.105377 0.103211 -0.103218 0.102074 0.101726 -0.102577 -0.102428 0.101459 -0.102329 0.101406 0.101387 0.101356
internal_weight=16.6733 11.0396 7.35643 5.63368 5.83949 3.24644 5.11704 2.59305 3.85087 1.68911 3.68319 3.35718 3.00982 2.84406 2.50688 2.25745 1.71943 1.85466 1.21835 1.52016 1.24978 0.923207
internal_count=455 242 119 213 100 40 206 60 182 41 123 180 116 173 163 95 75 133 55 112 93 70
is_linear=0
shrinkage=0.1


Tree=34
num_leaves=22
num_cat=0
split_feature=27 23 21 15 23 24 10 4 16 23 5 21 26 17 9 26 13 7 24 8 29
split_gain=3.87226 2.38682 2.6253 1.84337 1.81728 1.71389 0.66825 0.555192 0.147861 0.00425381 0.0016937 0.000445185 0.000205658 0.000153723 1.49739e-05 6.16971e-06 3.12843e-06 6.83339e-07 3.97491e-07 1.75026e-07 9.66051e-09
threshold=0.16030000000000003 650.80000000000007 20.225000000000005 0.012025000000000003 727.10000000000002 0.11095000000000001 0.40315000000000006 0.11875000000000001 0.070080000000000017 754.05000000000007 0.13265000000000002 26.670000000000005 0.24330000000000004 0.018655000000000001 0.06672500000000002 0.20875000000000002 27.405000000000005 0.097735000000000002 0.11045000000000001 0.16310000000000005 0.076005000000000017
decision_type=2 2 2 2 2 2 2 2 2 2 2 2 2 2 2 2 2 2 2 2 2
left_child=1 7 -3 -4 -5 -6 -7 10 9 -2 11 15 -13 14 17 16 18 -11 -1 -20 -21
right_child=8 2 3 4 5 6 -8 -9 -10 13 -12 12 -14 -15 -16 -17 -18 -19 19 20 -22
leaf_value=0.10138466403313313 -0.11192183231785349 0.10112368369935232 -0.12204065638000533 0.11584008296936187 0.085023485018711653 -0.020270243326907075 -0.11534583636351568 -0.022940915616208517 -0.046721741609971917 -0.10204204327724541 0.10934467263454622 0.10281741787943469 0.10541572750670068 -0.10426979028008405 -0.10280746672428115 0.10179880487991509 0.10166436316947369 -0.10220131385530967 0.10132213844305549 0.10121166135256257 0.10123553080703407
leaf_weight=0.29312557168304942 0.67035338841378855 1.875852850265799 1.7178331725299356 1.037642086856067 0.934474486857653 1.4052921524271371 1.5598253086209295 0.38705170527100552 0.51707195304334153 0.76095687597990058 0.39710055664181698 0.75572635140269973 0.51033081207424402 0.51354449428617943 0.39864223450422276 0.3823822634294628 0.25994921941310156 0.41699804179370403 0.25579956267029047 0.29553667176514864 0.39776402153074741
leaf_count=22 9 31 22 22 11 21 29 7 15 39 6 35 14 16 17 23 18 20 20 25 33
internal_value=0.000922426 0.0263528 -0.00336476 -0.0328167 -0.00177268 -0.0330683 -0.0702856 0.090783 -0.0957978 -0.10499 0.10319 0.102414 0.103865 -0.102767 -0.102278 0.10144 0.101349 -0.102098 0.101283 0.101251 0.101225
internal_weight=15.7433 12.4657 8.53092 6.65507 4.93723 3.89959 2.96512 3.93477 3.27757 2.7605 3.54772 3.15061 1.26606 2.09014 1.5766 1.88456 1.50218 1.17795 1.24223 0.9491 0.693301
internal_count=455 339 136 105 83 61 50 203 116 101 196 190 49 92 76 141 118 59 100 78 58
is_linear=0
shrinkage=0.1


Tree=35
num_leaves=23
num_cat=0
split_feature=26 23 18 21 15 6 24 23 7 22 3 21 21 21 13 27 5 21 3 4 8 20
split_gain=3.52116 2.30522 2.21899 1.9366 1.24806 1.94614 0.905949 0.648942 0.00614661 0.00154222 0.000326934 0.000298193 0.000170926 0.000120564 5.3112e-05 2.91562e-05 3.29487e-06 3.17942e-06 4.78819e-07 2.75473e-07 1.15105e-07 3.83286e-08
threshold=0.20140000000000005 972.25000000000011 0.010420000000000002 25.810000000000006 0.019335000000000005 0.10615000000000001 0.13755000000000003 930.10000000000002 0.046735000000000006 105.40000000000002 546.35000000000002 24.555000000000003 25.810000000000006 32.080000000000005 32.57500000000001 0.15585000000000002 0.18715000000000001 27.825000000000003 476.90000000000003 0.10170000000000001 0.16765000000000005 11.775
decision_type=2 2 2 2 2 2 2 2 2 2 2 2 2 2 2 2 2 2 2 2 2 2
left_child=2 3 -1 6 -5 -6 -2 9 -3 10 13 -10 -12 14 17 -13 19 18 20 -17 -4 -22
right_child=1 8 7 4 5 -7 -8 -9 11 -11 12 15 -14 -15 -16 16 -18 -19 -20 -21 21 -23
leaf_value=-0.22290614787304697 0.11093631817786936 -0.11453215660960364 0.10119380364345242 -0.13154317755849507 0.089645719226395276 -0.082901153547320611 -0.0043636611067679109 0.012645989953448978 -0.10469607853118888 0.10832489592560424 0.10270929195315304 -0.10289671957291453 0.10526618106117976 0.10344412603889382 0.10277988055640611 -0.10195325365396915 -0.10223331578479976 0.1015874544321793 0.10130139517030766 -0.1018493176043852 0.10115136207384477 0.10110304726249951
leaf_weight=0.24736002087593156 1.6252379827201351 0.54586342722177539 0.40462440997362248 1.1956807635724547 1.148252376355231 1.5176134202629326 1.173535552807152 0.99911952763795842 0.65321551728993688 0.52718309313058842 0.54073430597782113 0.48146225698292244 0.50619443878531456 0.36935188248753537 0.26195497531443823 0.50485613755881764 0.42081254348158825 0.22621445078402747 0.2680139336735009 0.51526571437716484 0.31317452806979418 0.34516392182558775
leaf_count=1 36 6 35 12 20 27 24 6 21 8 26 20 14 12 13 27 20 16 22 29 28 32
internal_value=0.000933413 -0.0339819 0.0691163 -0.000748107 -0.0466548 -0.00858107 0.0625906 0.0842862 -0.104893 0.103309 0.102492 -0.10285 0.103946 0.101797 0.101462 -0.102223 -0.101998 0.101241 0.101182 -0.101901 0.101152 0.101126
internal_weight=14.7909 9.7818 5.00909 6.66032 3.86155 2.66587 2.79877 4.76173 3.12148 3.76261 3.23543 2.57561 1.04693 2.1885 1.81915 1.9224 1.44093 1.55719 1.33098 1.02012 1.06296 0.658338
internal_count=455 242 213 119 59 47 60 212 123 206 198 117 40 158 146 96 76 133 117 56 95 60
is_linear=0
shrinkage=0.1


Tree=36
num_leaves=24
num_cat=0
split_feature=22 24 22 21 17 15 21 20 28 28 22 27 6 7 21 22 21 3 8 9 4 7 16
split_gain=3.1594 2.13882 2.29673 1.53653 1.67991 1.18958 0.968774 1.38119 0.829542 0.0435548 0.00677935 0.00513978 0.00148427 0.000353936 0.000200103 5.193e-05 1.42785e-05 7.92944e-06 2.00467e-06 1.26546e-06 3.52261e-07 1.76845e-07 3.14479e-08
threshold=127.2 0.13755000000000003 87.080000000000013 25.080000000000002 0.015070000000000002 0.014955000000000001 29.435000000000006 15.455000000000002 0.27115000000000006 0.18350000000000002 106.30000000000003 0.11825000000000001 0.066950000000000023 0.043830000000000001 25.020000000000003 99.190000000000012 26.460000000000004 520.10000000000014 0.21285000000000001 0.056590000000000008 0.085165000000000018 0.097065000000000012 0.013375000000000001
decision_type=2 2 2 2 2 2 2 2 2 2 2 2 2 2 2 2 2 2 2 2 2 2 2
left_child=1 3 12 9 5 8 7 -4 -5 -1 13 -2 16 15 -13 17 -3 20 19 -16 -11 -21 -22
right_child=11 2 6 4 -6 -7 -8 -9 -10 10 -12 14 -14 -15 18 -17 -18 -19 -20 21 22 -23 -24
leaf_value=0.14986185005860694 -0.11502433872418066 0.10124998473274079 0.059613529742994879 0.070343884357941408 -0.10462948430036639 0.11497265928170114 -0.13624571384633952 -0.10495280666574631 -0.069530216926079802 0.10115828140481441 0.11221259992876825 -0.10414844991230537 0.1098113409496905 0.1053880893810389 -0.10196001238381636 0.10281775161635841 0.1022539357028482 0.10171339605370229 -0.10208400245191461 -0.10168368526909377 0.10099462364427672 -0.10178318696823668 0.10104641560421666
leaf_weight=0.25163180381059502 0.39269969984889153 0.28906989004462946 0.96393593586981374 0.76798920053988717 0.89791836775839318 1.5039221104234455 1.3640037653967736 1.0830029854550955 0.94660971313714981 0.33252464421093486 1.1733420416712759 0.53133230842649926 0.38125337287783623 0.29124554432928551 0.36529082059860207 0.25625550281256426 0.2778081027790904 0.26037331204861403 0.34970022179186333 0.37346046697348356 0.20438458304852247 0.34237098041921854 0.2749554505571723
leaf_count=3 4 26 25 27 15 37 27 21 14 30 15 20 9 9 20 12 15 17 18 23 21 20 27
internal_value=0.000962521 0.0225368 -0.0326902 0.0561541 0.0163167 0.0500588 -0.0709599 -0.0274559 -0.00687895 0.110014 0.106424 -0.104581 0.104987 0.102231 -0.102491 0.101539 0.101742 0.101233 -0.101876 -0.101809 0.101079 -0.101731 0.101024
internal_weight=13.8751 11.5202 4.35907 7.16115 4.11644 3.21852 3.41094 2.04694 1.7146 3.04471 2.79308 2.35485 0.948131 1.61974 1.96215 1.32849 0.566878 1.07224 1.43082 1.08112 0.811865 0.715831 0.47934
internal_count=455 350 123 227 93 78 73 46 41 134 131 105 50 116 101 107 41 95 81 63 78 43 48
is_linear=0
shrinkage=0.1


Tree=37
num_leaves=24
num_cat=0
split_feature=22 28 22 21 18 27 19 26 3 27 6 22 3 21 21 27 21 22 8 9 24 7 8
split_gain=2.83167 1.91193 1.68615 1.45089 1.254 1.16595 1.32146 0.56949 0.100326 0.00374145 0.00136477 0.00121188 0.000210404 0.000148514 4.89098e-05 2.0222e-05 6.82581e-06 5.44942e-06 1.47777e-06 9.34316e-07 1.77011e-07 1.30356e-07 2.76231e-08
threshold=127.2 0.28065000000000007 87.080000000000013 32.000000000000007 0.012215000000000002 0.15435000000000001 0.0033420000000000004 0.26730000000000004 863.80000000000007 0.11825000000000001 0.061680000000000006 105.40000000000002 552.95000000000016 25.020000000000003 32.080000000000005 0.087435000000000013 26.900000000000002 88.135000000000005 0.21285000000000001 0.056590000000000008 0.11045000000000001 0.097065000000000012 0.16395000000000001
decision_type=2 2 2 2 2 2 2 2 2 2 2 2 2 2 2 2 2 2 2 2 2 2 2
left_child=1 4 10 5 -1 6 -4 8 11 -2 16 12 14 -11 15 17 -3 20 19 -15 -6 -21 -22
right_child=9 2 3 -5 7 -7 -8 -9 -10 13 -12 -13 -14 18 -16 -17 -18 -19 -20 21 22 -23 -24
leaf_value=-0.035303195795400526 -0.11342903989906275 0.10108407480894817 -0.041990586373780225 -0.14099786694927804 0.10104436212283004 -0.10703107981656756 0.11004511882464207 0.03434964023759051 0.15453134027760859 -0.10374931989907146 0.10959197372661247 0.10801345043087092 0.10373351325694442 -0.10177028100827573 0.1028816127560692 0.10223590277857145 0.10177618414241703 0.10156213166973245 -0.10188198672829672 -0.10152091353631039 0.10095964868281458 -0.10161065099418426 0.10090596296913784
leaf_weight=1.0438848342746476 0.36007008329033974 0.34408173151314247 1.2735947156324989 1.1844958225265143 0.23082539997995011 0.91663331445306528 1.0373350139707325 1.4203007752075789 0.45339733362197865 0.48252467438578595 0.30771808419376612 0.48021857440471638 0.78175141382962454 0.33111363742500521 0.25976661592721928 0.20489745959639549 0.24322496354579926 0.2129983538761735 0.31701731402426958 0.3384352270513773 0.19704072084277868 0.31028932519257069 0.18660941254347563
leaf_count=17 4 35 29 16 23 27 24 30 2 20 8 8 33 20 10 13 16 17 18 23 21 20 21
internal_value=0.000955399 0.0218141 -0.0209505 -0.0463378 0.0632921 -0.0115981 0.0262555 0.0865366 0.111182 -0.104133 0.104197 0.103487 0.102439 -0.102252 0.101655 0.101346 0.101371 0.101126 -0.101694 -0.101634 0.100975 -0.101564 0.100934
internal_weight=12.9182 10.7788 5.30708 4.41206 5.47169 3.22756 2.31093 4.42781 3.00751 2.13945 0.895025 2.55411 2.07389 1.77938 1.29214 1.03237 0.587307 0.827474 1.29686 0.979838 0.614476 0.648725 0.38365
internal_count=455 350 155 96 195 80 53 178 148 105 59 146 138 101 105 95 51 82 81 63 65 43 42
is_linear=0
shrinkage=0.1


Tree=38
num_leaves=23
num_cat=0
split_feature=13 26 15 7 21 21 20 11 3 19 11 21 27 20 26 13 20 16 9 21 9 16
split_gain=2.58568 2.41097 1.77408 1.81649 0.809958 0.622694 0.572541 0.117616 0.0718021 0.0309132 0.0304757 0.00251241 0.000834435 0.000744138 0.000197029 3.17181e-05 1.22312e-05 1.9308e-06 3.80203e-07 8.37102e-08 2.55576e-08 2.03871e-08
threshold=52.415000000000013 0.20140000000000005 0.012245000000000001 0.045465000000000012 27.225000000000005 31.420000000000005 16.715000000000007 2.1205000000000003 863.80000000000007 0.0058030000000000009 1.425 30.375000000000004 0.12105 15.955000000000002 0.34385000000000004 32.57500000000001 14.645000000000001 0.046740000000000004 0.05886000000000001 26.265000000000004 0.061455000000000003 0.019525000000000004
decision_type=2 2 2 2 2 2 2 2 2 2 2 2 2 2 2 2 2 2 2 2 2 2
left_child=1 5 -3 6 -5 8 11 9 13 14 -6 12 -4 15 -2 16 18 -16 -1 20 -20 -22
right_child=7 2 3 4 10 -7 -8 -9 -10 -11 -12 -13 -14 -15 17 -17 -18 -19 19 -21 21 -23
leaf_value=0.10100800070082301 -0.10419487265211863 -0.16099700910283118 0.10182478014939374 -0.0020594733090054992 -0.085535280316775208 0.017205858906316387 0.0019242244925830911 -0.15762653554045733 0.14677828960101338 -0.068149591689933245 -0.11455639135605554 0.11281012259490673 0.10776188722823675 0.10530710755847128 -0.10138007887108125 0.10231650714580512 0.1015623638436115 -0.10171588709532771 0.10081669769428461 0.1009243796248232 0.10087559353105464 0.10083435800529446
leaf_weight=0.229218976106494 0.45095517393201656 0.7481218660250305 0.55802589468657993 2.0156276756897573 0.72041983809322097 1.0031120954081414 0.77843675762414921 0.37217047065496434 0.43077223002910603 0.33711015991866577 0.72700094617903233 0.54902090504765511 0.41113490425050259 0.60794510506093491 0.41387728881090879 0.23226166563108552 0.36309145856648672 0.29203453939408064 0.19274674262851477 0.17874422669410706 0.3074385435320437 0.1965507660061121
leaf_count=24 18 9 37 36 32 25 9 9 2 16 11 8 9 16 31 14 26 19 24 20 36 24
internal_value=0.000938885 0.0206508 -0.0161256 0.00269173 -0.0430416 0.0846114 0.0716525 -0.107327 0.1093 -0.094797 -0.100112 0.107405 0.104343 0.102304 -0.102562 0.101231 0.101059 -0.101519 0.100893 0.100863 0.100848 0.10086
internal_weight=12.1158 10.2497 6.50779 5.75967 3.46305 3.74188 2.29662 1.86615 2.73877 1.49398 1.44742 1.51818 0.969161 2.308 1.15687 1.70005 1.46779 0.705912 1.1047 0.87548 0.696736 0.503989
internal_count=455 362 151 142 79 211 63 93 186 84 43 54 46 184 68 168 154 50 128 104 84 60
is_linear=0
shrinkage=0.1


Tree=39
num_leaves=24
num_cat=0
split_feature=22 24 13 21 17 29 4 4 23 27 12 21 27 3 21 21 9 26 13 28 9 10 8
split_gain=2.337 2.07335 1.71087 1.39367 0.841539 0.694278 0.358066 0.155318 0.243524 0.0184934 0.0135896 0.0139224 0.00189552 0.000182606 0.000133056 2.14946e-05 9.49799e-06 3.2019e-06 1.15374e-06 2.28886e-07 1.00183e-07 2.10854e-08 1.61262e-08
threshold=91.695000000000007 0.13595000000000004 53.975000000000001 25.810000000000006 0.010018500000000001 0.078605000000000022 0.12170000000000002 0.093680000000000013 708.90000000000009 0.14700000000000005 2.6820000000000008 19.890000000000004 0.14105000000000004 642.60000000000014 33.190000000000005 27.720000000000002 0.06672500000000002 0.20875000000000002 28.205000000000002 0.33105000000000001 0.059135000000000007 0.20880000000000001 0.16990000000000002
decision_type=2 2 2 2 2 2 2 2 2 2 2 2 2 2 2 2 2 2 2 2 2 2 2
left_child=6 2 3 10 -5 -3 12 -7 -9 -10 11 -2 14 -11 15 17 19 18 20 -15 -1 -22 -23
right_child=1 5 -4 4 -6 7 -8 8 9 13 -12 -13 -14 16 -16 -17 -18 -19 -20 -21 21 22 -24
leaf_value=0.10085714198602685 0.10789156630384367 0.024222492878930132 -0.10809159965246057 -0.060767645408728213 0.049511895313799605 -0.15556707361536359 -0.017058708129434722 -0.030961565873565584 -0.1239338460494217 -0.10409105637661163 0.1180133777227951 0.086441361256577198 0.11004136714438442 -0.10126170744010506 0.10341029517048828 0.10180522493390456 -0.10196410726256107 0.10127045036983816 0.10108292688642218 -0.10139017679735401 0.10079745409892092 0.10078305380878677 0.10074245757023821
leaf_weight=0.16586573887616551 0.81226397631689706 0.50849177874624762 0.93899917788803566 1.3797652125358584 1.388121443800628 0.46230417769402299 0.28279588557779778 0.51118923397734795 0.55575489252805699 0.42233769875019767 0.6091724932193755 0.48222818644717336 0.30463487282395352 0.25755586102604866 0.30793271586298931 0.35810390627011646 0.4115824094042182 0.21023242082446814 0.16024564113467932 0.3004717044532299 0.18721467070281506 0.15338227199390531 0.27026587631553411
leaf_count=20 24 18 37 24 19 6 6 15 5 17 9 31 4 21 11 24 25 18 17 23 24 20 37
internal_value=0.000925532 -0.0223648 0.0150782 0.0398358 -0.00546141 -0.083617 0.0886301 -0.102389 -0.0923903 -0.108513 0.105697 0.0999009 0.102743 -0.102356 0.101516 0.101129 -0.1016 0.100918 0.100839 -0.101331 0.100788 0.10077 0.100757
internal_weight=11.4409 9.04024 5.61055 4.67155 2.76789 3.42969 2.40067 2.9212 2.45889 1.9477 1.90366 1.29449 2.11788 1.39195 1.81324 1.50531 0.96961 1.14721 0.936974 0.558028 0.776729 0.610863 0.423648
internal_count=455 274 144 107 43 130 181 112 106 91 64 55 175 86 171 160 69 136 118 44 101 81 57
is_linear=0
shrinkage=0.1


Tree=40
num_leaves=22
num_cat=0
split_feature=27 23 21 14 17 19 4 14 3 5 21 22 26 7 5 26 13 6 18 9 17
split_gain=2.14938 1.50771 1.50883 0.985115 1.84166 0.616635 0.40418 0.135297 0.00216673 0.000728201 9.206e-05 6.44485e-05 4.04867e-05 1.10121e-05 2.46461e-06 1.39034e-06 3.58029e-07 3.12782e-07 7.39902e-08 6.79455e-08 1.64764e-08
threshold=0.16030000000000003 650.80000000000007 20.225000000000005 0.0054535000000000009 0.0099065000000000021 0.0028470000000000001 0.12260000000000001 0.0091940000000000025 497.80000000000007 0.13265000000000002 26.670000000000005 126.30000000000003 0.24330000000000004 0.033600000000000012 0.19575000000000001 0.20875000000000002 26.475000000000005 0.19155000000000003 0.015975000000000003 0.059135000000000007 0.0077390000000000002
decision_type=2 2 2 2 2 2 2 2 2 2 2 2 2 2 2 2 2 2 2 2 2
left_child=1 6 -3 4 -4 -5 9 8 -2 10 13 -10 -12 15 17 16 19 18 -13 -1 -21
right_child=7 2 3 5 -6 -7 -8 -9 11 -11 12 14 -14 -15 -16 -17 -18 -19 -20 20 -22
leaf_value=0.10077493098490174 -0.11051405575550505 0.094359546085986262 -0.066187330287379331 -0.12556735062677421 0.10220195015897526 -0.025625600811088362 -0.032508417580920795 -0.030526018979557187 -0.10277912242130523 0.10686820197104829 0.10175036820798947 -0.10117481763376719 0.10320994820759986 0.10169842507495858 -0.10155146000653317 0.10105794598600087 0.1008912323164263 -0.10127905330002417 -0.10109288882155459 0.10071525157801982 0.10067887514339716
leaf_weight=0.15019773272797354 0.35723282396793443 1.2596450848504899 1.3460729597136381 1.175118454732001 1.2551205819472668 1.3006653189659116 0.24760578293353308 0.29781112819910038 0.41962568089365937 0.29231911804527033 0.47173582250252355 0.22867066506296396 0.3182609211653471 0.16039858851581812 0.25176119990646839 0.17617578944191337 0.14196689007803798 0.23043724801391363 0.21281948313117027 0.26617550617083907 0.23395977355539799
leaf_count=20 5 31 31 18 22 34 5 13 21 6 35 20 14 14 18 18 18 19 20 38 35
internal_value=0.000915043 0.0221856 -0.00360516 -0.0279111 0.0150634 -0.0730625 0.0886514 -0.0927033 -0.103592 0.102219 0.10151 -0.101751 0.102338 0.100931 -0.101285 0.100804 0.100747 -0.101185 -0.101135 0.100716 0.100698
internal_weight=10.7938 8.79542 6.33662 5.07698 2.60119 2.47578 2.4588 1.99836 1.70055 2.21119 1.91887 1.34331 0.789997 1.12887 0.923689 0.968476 0.7923 0.671927 0.44149 0.650333 0.500135
internal_count=455 339 136 105 53 52 203 116 103 198 192 98 49 143 77 129 111 59 40 93 73
is_linear=0
shrinkage=0.1


Tree=41
num_leaves=22
num_cat=0
split_feature=22 28 22 21 18 27 19 26 3 7 6 3 21 21 27 3 21 29 19 4 28
split_gain=1.99949 1.3378 1.17102 0.960495 0.860778 0.841046 1.03347 0.504937 0.0303555 0.00171253 0.000681648 0.000542336 0.000149975 8.36671e-05 2.48209e-05 9.17901e-06 2.84208e-06 6.81377e-07 4.47081e-07 3.21416e-07 1.9573e-08
threshold=127.2 0.28065000000000007 87.080000000000013 32.000000000000007 0.012215000000000002 0.15435000000000001 0.0033420000000000004 0.26730000000000004 863.80000000000007 0.055760000000000011 0.071210000000000009 645.25000000000011 33.045000000000009 25.080000000000002 0.087435000000000013 528.30000000000007 27.005000000000006 0.076240000000000016 0.0047490000000000006 0.082115000000000007 0.25565000000000004
decision_type=2 2 2 2 2 2 2 2 2 2 2 2 2 2 2 2 2 2 2 2 2
left_child=1 4 10 5 -1 6 -4 8 11 -2 16 12 14 -11 15 19 -3 -15 -19 -6 -21
right_child=9 2 3 -5 7 -7 -8 -9 -10 13 -12 -13 -14 17 -16 -17 -18 18 -20 20 -22
leaf_value=-0.028239862539171118 -0.11001788691531156 0.10072643815349798 -0.040814739481797147 -0.12847669160085604 0.10081207641617417 -0.10555989777143347 0.10801605629950546 0.027852535145733749 0.13404319685847962 -0.10294354474945305 0.1077615896411859 0.10540141101438756 0.10374859266831782 -0.1012977302115866 0.10207524263693615 0.10140975471312241 0.10125453551763808 -0.10103964688209364 -0.10121688356876124 0.10065682371790122 0.10060934500639838
leaf_weight=0.91465135803445985 0.30846203677356321 0.24617855111137021 1.0905329389497644 0.96125076338648785 0.14975049113854833 0.69629213865846384 0.81543310917913903 1.1933799334801731 0.37346060574054707 0.37657148111611582 0.22542601451277733 0.60265817120671261 0.30220813304185856 0.2549109123647213 0.25410061469301581 0.26963447406888008 0.17389219207689166 0.39556420221924782 0.22231250908225775 0.21787283662706614 0.14435862749814987
leaf_count=17 5 37 29 16 20 27 24 30 2 21 6 17 11 21 18 22 16 39 19 34 24
internal_value=0.000927444 0.0197476 -0.0206064 -0.0430555 0.0581572 -0.0115017 0.0228598 0.0806874 0.107935 -0.103345 0.103326 0.102911 0.101789 -0.101698 0.101217 0.100938 0.100945 -0.10116 -0.101103 0.100689 0.100638
internal_weight=10.1889 8.63108 4.20901 3.56351 4.42208 2.60226 1.90597 3.50742 2.31404 1.55782 0.645497 1.94058 1.33793 1.24936 1.03572 0.781616 0.420071 0.872788 0.617877 0.511982 0.362231
internal_count=455 350 155 96 195 80 53 178 148 105 59 146 129 100 118 100 53 79 58 78 58
is_linear=0
shrinkage=0.1


Tree=42
num_leaves=25
num_cat=0
split_feature=22 21 22 4 24 14 18 19 24 6 29 7 22 27 21 21 6 26 20 10 11 11 3 15
split_gain=1.79221 1.22816 1.27625 1.18393 0.957541 0.517442 0.341519 0.20548 0.111299 0.0297095 0.00517249 0.0012557 0.00111162 0.000951349 6.20937e-05 5.13805e-05 1.45583e-05 9.42645e-06 1.30253e-06 5.35191e-07 5.03998e-07 1.21285e-07 4.81441e-08 1.62536e-08
threshold=127.2 20.225000000000005 91.695000000000007 0.090440000000000006 0.10930000000000002 0.0059825000000000008 0.013620000000000002 0.0028840000000000003 0.15320000000000003 0.088095000000000021 0.059525000000000008 0.055760000000000011 108.45000000000002 0.14105000000000004 25.080000000000002 32.080000000000005 0.048625000000000008 0.21965000000000004 13.595000000000001 0.3706000000000001 1.1995000000000002 1.5980000000000001 1182.5000000000002 0.013940000000000003
decision_type=2 2 2 2 2 2 2 2 2 2 2 2 2 2 2 2 2 2 2 2 2 2 2 2
left_child=1 9 6 4 -4 -5 -3 -7 -9 10 -1 -2 16 15 -13 17 18 19 -12 21 22 23 -16 -8
right_child=11 2 3 5 -6 7 13 8 -10 -11 12 14 -14 -15 20 -17 -18 -19 -20 -21 -22 -23 -24 -25
leaf_value=0.12339822498848485 -0.10899764083211659 -0.032120616263545121 0.10359550357360628 -0.015852351137034378 -0.026395691155096209 -0.14456396000103783 0.10060312865726578 -0.037855068839600076 -0.10532152604526057 0.073145624875899637 0.10060344253615142 -0.1026619988917728 0.10767826016732281 0.10818370060291914 -0.10093139210975879 0.10261012910037655 0.10192844592499871 0.10142558737777768 0.1009966633028149 0.1008519144822555 -0.10112670299085232 0.10069740593439946 -0.10100197671792643 0.10055371022780607
